solver_type L2R_LR
nr_class 2
label 1 -1
nr_feature 51241
bias 0.000000000000000
w
0.1691849776418610 
0.002107754394279980 
0.0004567783120645659 
0.002886170092112076 
0.002431364279386787 
0.0001544506802811797 
-0.0008441233219628284 
0.0002506727841165817 
-0.004631094596712470 
3.371975061523283e-06 
1.728016413611715e-08 
-0.001178850510555877 
0.02167967789592779 
-2.544739339452262e-05 
0.0002939241712207441 
0.1029837933561218 
-4.107671011312035e-05 
0.04878184829397007 
3.944448566762928e-07 
4.465382911166212e-07 
0.04394154084637134 
0.0002967455162750380 
0.02067960759718318 
-0.003230932489994638 
0.1750007375121231 
0.1738805006699949 
-0.4134636997795395 
0.004773276065095838 
-0.3237058908493381 
0.09862715478513066 
-0.004171626849432242 
0.0002402600479107762 
0.01812114900403523 
0.03511359504655413 
0.005253816665639058 
1.792350424244501e-06 
0.0002514928519886640 
0.004907138599051680 
-0.0005599818061161805 
-0.0001250167015749669 
-0.0003706064099428708 
0.1144398803022667 
0.1498057484158317 
-0.002835338558822712 
0.01987346282084913 
0.1189583880414629 
0.0004200296072372135 
-0.001620781635096374 
-0.001378362189947425 
0.001016663691659537 
0.005429734671371666 
-4.704333034830804e-05 
-0.0002068639276119148 
0.0001512332612363194 
-0.0002659903474843824 
0.0007012531617058421 
1.583868415087614e-06 
-0.0002285823889641999 
0.0008010998752220568 
0.002433165535020053 
0.0001119039853526612 
-7.485555846846050e-08 
0.01533851366708430 
-0.0009057676948518670 
0.02504921750273171 
0.004945073654044728 
0.1380509328192762 
0.0003954971401516739 
0.0005431720294564123 
0.001798217629966752 
0.003864532808254888 
2.114542168311526e-05 
-0.0001072257650715332 
-5.935245414712053e-05 
2.741106162279892e-06 
0.0009800589055391868 
1.731689063240844e-05 
-6.742353399723636e-08 
0.0009944494480828583 
-0.001853769017468856 
0.002427814227483033 
0.002169446195901204 
-0.0003003657679099532 
0.01625431750403555 
-5.097455743994275e-05 
0.01798244412038540 
8.463903661455388e-05 
0.01283864643124679 
0.03304964388318499 
0.01105995386743561 
6.493635225691579e-07 
0.01041988134114879 
0.0002315703181241674 
0.0003685709663082493 
0.0002395739042795549 
-0.09290172068772815 
0.0002281887831827440 
0.004768402570025079 
0.006813593882258271 
0.0002264683421627090 
0.02589700207086552 
0.0004727829598332977 
0.01005970707513672 
0.02474731919427720 
0.01010919427967825 
0.007792607063550328 
0.2213988978756735 
0.004067357781152919 
0.007150124404662431 
0.002825946703203899 
0.0005983665250370943 
0.03699422750511356 
1.401948610719165e-05 
0.01089325325329615 
0.002726755297149019 
0.04305022516425001 
-0.0002533551372407402 
0.03184440507298739 
-7.343026605873367e-05 
1.728016413611715e-08 
0.0009395844254903635 
9.960814568089158e-06 
-0.001045404384163485 
0.007116645058410377 
-0.0001954726097366835 
7.564393541484681e-05 
0.0005562100793767982 
-3.490888957304242e-05 
0.0003808393392684941 
0.001816532740828532 
0.002407652138386485 
0.0003596363780859933 
0.005438900746543735 
0.004096374861724728 
1.216320073357739e-05 
-1.636408293435712e-07 
0.0001904133801616789 
2.366780116116008e-07 
-0.0001524851192372406 
0.0002932710467462652 
0.0005285326264520107 
0.0002822028750583820 
0.003311070698061695 
4.152437835744939e-05 
0.001961957813206470 
6.903656752938529e-06 
0.004628404550521588 
-0.003402688685867517 
0.002674337705633030 
0.003394873197608665 
0.2226877490665113 
0.001604906533615976 
-0.0002731109826747134 
0.0001315884201300347 
0.003750032661722826 
0.0002679366083374549 
0.004409350126821870 
0.0002307399106798234 
0.0001165532462227298 
0.0006803403589765373 
-7.300219197111461e-05 
0.001042425489737085 
-0.0001542970030469177 
0.0008577133186368231 
-5.890596807533194e-05 
0.003353315333374489 
0.003799741278150970 
0.0004827637280739533 
0.0001769205149759034 
-0.0002373785370836836 
0.001289853490295187 
0.003142154307145731 
-0.0002152445376476407 
0.0001971877395325624 
1.437103537387620e-07 
-0.005527797037943292 
0.0002822247398067402 
0.003115077448215731 
0.0001031542375245545 
3.804145500324415e-05 
4.953778695033106e-05 
-0.0001763492111806126 
-8.614633502746714e-08 
0.01058627099729062 
9.118547027034947e-05 
0.0005144440968978471 
0.0001211131328088064 
0.0004591050666033145 
0.0005393133678628957 
0.02387780127033408 
0.002029293731035010 
-1.710303136179143e-07 
-1.796171081251142e-07 
1.059340084123332e-06 
-0.001316197524841786 
0.001273327493619667 
9.199736423069177e-05 
0.005654363381809585 
-0.0002650183566489473 
0.0002821908798900819 
0.0007466263412176842 
0.0001065573006658705 
0.001351014880058339 
8.671674691658337e-05 
0.0004588225033456707 
0.002822834194680832 
-0.0007878406486694085 
0.0003697319326575898 
4.554064642125608e-05 
0.0008178718055984104 
0.0004567783120645659 
0.001095057641806011 
0.0003220313814520545 
0.0002397340936753802 
-0.0001736112550222218 
0.02362368336455128 
0.008176841223720433 
-0.002634354970328629 
0.004450043594458403 
0.001171257588192258 
0.001685254858067985 
2.887059955101502e-05 
1.488787576139329e-05 
4.853779572673471e-05 
3.152569268006967e-06 
0.0001620111815744773 
0.0001104748882550281 
-0.0001237980324211879 
5.049912321562723e-07 
0.002084138541647982 
0.0005553389001385239 
0.0001251707392377960 
0.001703459358594103 
1.336799127419704e-05 
-7.928317315646055e-08 
0.001029951499808767 
4.569338628725989e-05 
-7.896280905028546e-05 
0.002978249221108885 
0.001267582197768081 
0.0007230809346335863 
0.0001213785873012694 
2.807756349711448e-05 
-1.571719272002108e-07 
0.0006300242592542665 
0.0007233483015815945 
0.0004824420692790359 
0.001382363925343710 
0.0001095631418781487 
0.002220051249251558 
0.0004718613160041657 
0.0006622325734392734 
6.261203911885737e-05 
0.007037927281223191 
2.752128546999917e-05 
0.002602613786612881 
-8.216477596216168e-05 
-8.170977545288752e-07 
0.01053985812719248 
0.0001299903565749696 
0.002348839154196468 
0.0008033159665595455 
2.733920706675510e-05 
0.004097820714401013 
-2.577389635019437e-07 
0.0009340156952515045 
0.0007873455788523542 
8.100957715539774e-05 
0.0003518086038592331 
0.0003659918762989262 
0.001775147906473010 
0.001231188674829318 
-0.0001878006357871408 
6.311918632027032e-05 
0.0005148979721394519 
1.021314596121511e-06 
0.004160173118059430 
0.0006632992120038286 
0.002254687181584370 
0.004904153009788456 
0.0001351043962938143 
-8.320736269056041e-08 
-2.577389635019437e-07 
-7.181094981624225e-08 
1.574460424924178e-05 
-7.777680584954784e-06 
0 
5.317763257289962e-06 
0.0004986869721236799 
0.0003781636894492474 
0 
-8.824761226636064e-05 
0.002050067921425841 
0.001316773460568684 
0 
0.0008011116099771697 
0.0002153237318608974 
0.0005329700958900739 
0.0005589612893096434 
0.001805638368943588 
0.002048449321139754 
0.001405638509944688 
0.004307317691413523 
0.003844978404998483 
0.0005409263581289372 
0.003866314600109452 
0.003196874870866649 
0 
-0.001879671268382559 
0.001705179633975342 
0.003895931064033673 
0.003978415901459252 
0.005479514641658157 
-0.0002046135972042144 
0.009296825982197478 
-0.003269591722517909 
0.003230292944894606 
0.002472150946405363 
6.225696311103477e-05 
-2.772282045658758e-07 
-3.192029561876566e-07 
0.0007105256003306294 
0.0006503145908675599 
0.0001326115673860466 
0.007452019453083402 
0.0005133081578658967 
0.004648609218878376 
0.002058686202724269 
0.003787622187863671 
0.0007797371574994099 
1.027667962706795e-07 
0.0008303158030848992 
0.0006429116352018519 
0.09442715796476739 
0.04749222067798224 
0.009250194766623008 
-0.0002075090174909824 
0.004658392140746970 
0.001445327751988459 
-2.735971678285351e-05 
7.802583433101558e-05 
0.009053263051376992 
0.002391453585789551 
-8.860911619173420e-08 
0.0007283164811111833 
0.0004253864258715996 
0.002272592941964568 
-0.005970183944244582 
1.830041708172715e-05 
-3.507798073091700e-07 
0.0001807730505354114 
0.01069415613172058 
0.002207164886854096 
0.0002981694953403980 
0.01799019552063563 
0.003771992295149979 
9.819024154211531e-05 
4.313071373053488e-05 
0.006794336643967918 
0 
0.007042666816495130 
0.005105837277364303 
0.002716264735674005 
0.0001405912598879711 
0.001976300622577643 
0.0003704152015503122 
0.01008721584545445 
0.003180393128295619 
0.001826371859888722 
0.001045904621267150 
0.006171210566931254 
0 
0.001573316654462641 
0.004663786832489523 
3.107781631364511e-06 
-8.860911619173420e-08 
3.107781631364511e-06 
-1.634195509057755e-07 
0.0001160945589383071 
-0.0002099467513483951 
-6.742353399723636e-08 
0.001120219614614334 
0.0002625586285374591 
0.0001382116390809032 
0.01114548136524523 
0.002682595610906132 
2.142233730130664e-05 
4.541812131453802e-06 
0.002489304491824850 
-0.0002752314802050002 
-3.106760146735431e-07 
0.003801869133857530 
0.006743196565318762 
-2.438164107108040e-05 
0.0005310377093258447 
0.004049112273845390 
0.01726851377992959 
0.006903098052995198 
-0.003449464846231555 
0.01105514642798667 
0.009261844228704146 
0 
0.0006774199850792761 
0.004308623651330870 
-3.715373036657942e-08 
0.0001915346683806768 
0 
0.0005033519746116550 
0.006773011094473523 
-0.0002149043406941808 
0.0004940301090208010 
0.0003842387330320514 
0.0005199099761120170 
0 
0.004210604648172389 
0.0006269124860633002 
9.459360196838179e-05 
0.0005012860201689430 
0.001041042995115795 
0.001090955943207860 
0.0002710443021024466 
0.001279425068243024 
0.0008755337835452304 
1.191511507132938e-06 
0.0008908389595680728 
0.0008589965003095524 
7.794492082588893e-06 
0.0001722714322161819 
-9.003859878282131e-05 
-1.868067270099687e-07 
0.001271007417105196 
0.0005430791930234149 
4.293318770543096e-05 
0.0006470985442799289 
0.001975788342996044 
0.0007598669191672434 
0.08946887263471485 
0.005890659019964141 
0.001049473470816113 
-7.864111553262332e-08 
-0.001171787750007438 
0.002363885153960370 
-7.166282789955208e-08 
0.0007033791606300746 
0.0009607466322276937 
-3.507798073091700e-07 
0.0001404689915470244 
-9.937026108205370e-05 
0.0008495232302883218 
0.005761013565117872 
0.01039110961952865 
-0.0002184267285531709 
0.0002229096850513185 
0.0005658563925215713 
1.549669655606626e-05 
0.0001795976477178180 
0.0003750713659956004 
0.0007935007224095553 
0.001103834717528903 
0.002345686584928462 
0.0001659852405294217 
0.0001740500277987276 
0.001374204790068936 
0 
0 
0 
0 
0 
0 
0.0008581417195517832 
0 
0 
0 
0 
0 
0.0007415342584323887 
0.0002409385233213883 
0.004092824138001963 
0.0004553372558283744 
0.0003193842040941244 
0.003985106224666035 
0.0006459629044171661 
0.0004204462158043788 
0.006273732549094345 
0.004375327305927181 
0.008994203471968608 
0.009462889215647441 
0.009987874482500719 
0.004024802046747119 
0.004807775014787574 
0.004612955630111899 
-0.0007232204651214394 
0.0007685475221766289 
0.001076742253293149 
0.006910980158970362 
0.002350206963287182 
0.003082260627287777 
0.002036455737548090 
0.0007057672454080740 
0.004371491629492854 
0.001850939151346012 
0.001072508996544044 
0.002903033155509628 
0.001510554263994805 
0.0007916643391598212 
0.004554588555623774 
0.005392651744063676 
0.001452230325701798 
0.0009464645644412409 
-0.01352170671780937 
0.0007620456329039869 
0.0006382853926144205 
0.0001100648748023450 
-1.446357912681434e-07 
3.581672550312781e-05 
0.01283313151418622 
0.01422908400154755 
0.02197963128076210 
0.02515528476620300 
0.001774414327497456 
0.001992492273614194 
-5.525418551413424e-05 
-6.315454507372652e-06 
0.0001455294586862550 
-8.846087191770838e-08 
0 
0.0002707653304395092 
0.001589086367408889 
0 
0.001459202539852730 
0.0001482208528716999 
0.003321233990605665 
-0.007856829840878463 
0.004969779987802315 
0.007942603710736606 
0.05333124162236513 
0.03149482562486772 
0.01752723003966416 
0.005684220426233501 
0.006395582617084357 
0.006263731954815906 
0.001461595439377432 
0.001064474868641259 
2.719203930308760e-07 
1.081080421268267e-07 
0.006744892669128700 
0.001284249557635945 
0 
0.003616867346691862 
-0.0001277472660791353 
0.001145803321366984 
0.001105513723128213 
0.0007886768362715393 
0.001069513383014036 
0.002347546106947963 
-0.001456723578899719 
-0.001731515550333883 
5.952517336500834e-05 
0.0006816662663484500 
0.01209655417726779 
0.001529678661541192 
0.0002700533689869477 
0.0001687063392591469 
0.0001201165136130357 
-0.0002708536241791801 
0.0004844634473162212 
0.0001935301747389486 
0.002171003958072920 
0.007657433710889757 
0.009789594755026838 
0.006757830244238398 
0.001387442520640505 
-5.103571807903455e-05 
0.001663252056249289 
0.001007356612352428 
0.007111060315354669 
0.0004012741941400902 
0.005659022374130764 
-0.0001490244141711236 
0.0002021730049189655 
0.002257256999379622 
0.0003393787592082685 
-0.0008846205999940634 
8.200474887955392e-06 
0 
0.0001335274687960260 
0.004230104968635491 
0.004345366871342952 
0.001918317331949134 
1.360743656846822e-05 
0.0002878461622365231 
0.0004827637280739533 
0.002986243650081887 
0.001796450555041700 
0.001829920105768790 
3.557691636037738e-06 
3.917302180536367e-06 
0.003086465640183440 
5.996779191431488e-05 
0 
0.001261913344219370 
0.003163644057908806 
0.004085425353631878 
0.0003795508826161051 
0.0008856918995916028 
0.002931804953328081 
0.001104855220098871 
0.004808073478977022 
0.003580461885481462 
0.0006429009928248870 
0 
0.001349138298617010 
0.0007277656185309841 
2.304231163546647e-05 
7.794492082588893e-06 
0.01156296582384871 
0.008156015291255266 
0.009027492246091109 
0.004733789522654280 
0.0004353017955281191 
0.001493921150884519 
-0.0001708972236695580 
0.007548428314765520 
0.001942444473556518 
0.006819783286633803 
0.1671431950303323 
0.08956622877000038 
0.03971866964543332 
0.02832291528924292 
0.005539562192560068 
0.001497391988350678 
-6.803728138120215e-05 
0.001434178202682176 
0.004703397027622831 
0.0004396676124258662 
-4.478861859555208e-05 
-0.0002713549144202620 
0 
0 
-0.001896107063632188 
0.001419603930358937 
0.002264030334785766 
0.0003343279897021767 
0.005122902432744186 
0.001460543242462666 
0.0002599220674398936 
0.0003933253662948302 
0.001770246952534893 
0.005938196860051023 
0.006281763609859120 
0.002297540604345677 
0.003966660429984162 
3.659037488674456e-05 
-0.0001784146909126420 
0.0006151878218105469 
0.0005450155712678858 
0.001004495703363348 
0.0002365094363081023 
0.0002064729227578928 
0.0008441738423750733 
0.004732273543957694 
0.001965831538982651 
0.0004587427568812874 
0.0001060179988563594 
0.0001477694125250010 
4.029491348637202e-05 
0.0006072468374920332 
2.890671533489528e-06 
0.003752193259298985 
0.002877737572362972 
0.006016658247270320 
0.004424812282003965 
0.01570250613764250 
0.002760752422522231 
0.0003823660333991908 
0.0005262333403093333 
0 
0.0002749078317200632 
-5.881715334237310e-05 
0.05506061199816105 
0.01975367229478186 
0.007183259844665059 
0.001167342939868436 
0.006553804198420551 
5.834696853786436e-05 
0.001058609537926756 
0.002314576122855371 
0.004448460959415744 
-0.0002119434388116537 
0.0005867753225153064 
0.0001631292992388610 
0.0001628733441808279 
0.001284452960093694 
-3.080039434658641e-05 
0.001201274213590150 
0.001442532920868567 
0.0009291411236601757 
0.0008755337835452304 
0 
0.0003153892884376880 
0 
-0.009095708376069527 
0.0001428349574046242 
3.329027322119569e-05 
0.002165884741550730 
0.001941018360335496 
0.0004962935302349024 
0.0002537536080436695 
0.0003280230391305081 
0.002461605944718023 
0.001138923926994434 
-0.0001549381663751350 
0.001598664524279850 
0.007600367004421077 
0.007598036178295931 
0.002040286556012357 
0.003081028241032130 
0.003590067467571641 
0.003984366001709281 
0.002818855255054413 
0.003271523089286791 
0.003160088731966441 
0.004729086679966763 
0.004266925468443375 
-0.008000087229120940 
0.0009721924109147622 
0.0001816643151744466 
0.003821488302588500 
0.004967156761033566 
0.004048311608563063 
0.0007666215048795354 
0.001769593363737782 
0.001932043399547688 
0.007809142715907992 
0.005233110595492624 
0.005892035427120329 
0.002412941535420127 
0.001080462433779584 
0.004054759342690511 
0.003546131820962752 
0.004036453481081823 
0.002978643022838865 
0.009292453753263052 
-0.0001746536266512669 
0.004561479944791538 
0.003913028507252065 
0.0002496373570860043 
0.008811492170689970 
0.009641909753489260 
0.007249367247879696 
0.004373781622756999 
-0.0004191883973474691 
0.007858045025661455 
0.01671575866363727 
0.001182656355185600 
0.004480772636691271 
0.004684266363748470 
0.006946840758903615 
0.003669994457025893 
0.006057505613446183 
0.004301915464649684 
0.002446474598583657 
0.001587071207202809 
0.001867895813817570 
0.001371710320384575 
0.0005763610544524760 
0.0006690831576095731 
0.0003766414931900299 
-0.0001516609416409353 
-0.0007916132479408749 
0.01284454514935467 
0.01037094357150798 
0.009794770216008166 
0.006054145327846126 
0.008912428638006582 
0.0008634538444814393 
0.001564439717053775 
4.994549756328433e-05 
0.002936626375457081 
0.0003041469417134977 
0.001392423905064294 
0.0002507768640818245 
0.001932404952691880 
-3.150532378860473e-07 
0.0006399283173923573 
6.656637326414214e-05 
-0.002898041486652087 
0.002475471516309678 
1.802038499397606e-05 
-0.0001969584897615415 
0.0001522247091641806 
0.0003887192949237841 
0.001069653230916911 
0.0002286469792265078 
0.005341085803099290 
0.0002367825058190002 
0 
9.608725825649080e-05 
0.003610164212931637 
0.0005739675051429881 
0.001982788987321659 
0.0002187671217234445 
0.007899148959319185 
0.001273736652235929 
0.008026934590315091 
0.008994952730676607 
-0.009476293795201390 
0.0004403716901993998 
0.002554107813666535 
8.978312778099540e-06 
0.0008286380441857823 
0.001042325728084872 
0.0007068659948596344 
-0.0001533122513843287 
-5.208143195654469e-05 
0 
0.0008216667625244647 
0 
0.0007746980328396272 
-0.0001724928612124046 
0.0009207339303252441 
0 
0.0005746284299159170 
-5.895815990825179e-07 
-7.026108580883475e-05 
-3.106760146735431e-07 
1.402719841456029e-06 
3.687117085243904e-05 
0 
0.0009575769517552140 
0.001575715875020059 
0.002250780616861030 
0.004078283376709877 
0.003874345606969230 
0.001813143662781722 
0.0007168159632211350 
0.0004617024010978760 
0.005540162993857838 
0.0007958693365851231 
0.006248218942346815 
0.005227573859043331 
-9.981466063479325e-05 
0.0002803368477929591 
0.0004186436542706408 
0.0001167432034336398 
0.008605078979137246 
0.0008445261373392372 
0.003565185555240153 
0.002121351551271749 
0.008224731740427236 
0.003211833658616899 
0.0009240241933873855 
0.0005168982652154433 
0.007758003270997451 
0.001195675550537271 
0.001367000903236489 
0.001419767643495697 
0.0005529062635496444 
0.0006473025292900568 
0.0009879383172851510 
-0.0007529842579831481 
0.005842933296180989 
0.0002665816241083695 
0.001558442658666919 
0.0007065805120665114 
0.001107770393420344 
0.006437574123761228 
-8.846087191770838e-08 
0 
0 
7.147398944266056e-05 
4.289848714081201e-07 
0.0004098977175566186 
0.0001904818255032111 
0 
0.001053325431173507 
0.0008903159034764596 
0 
0.0002986980271877390 
0 
0.0008896534410729075 
1.285165433553252e-05 
0.001037351190780398 
0.001275723087261553 
0.002120236471963571 
0.002921072408736761 
0.001477950990387502 
2.263544467831026e-07 
0.0003745952656075044 
0.006525202680891400 
0.0003262499364570412 
0.0007939879818692828 
0.004953522305813965 
0.0007881809663816583 
0.001243099218879512 
0.003140967609217363 
0.0007700738248541090 
0.002304019985636480 
-0.0004465121933067853 
0.004957843223440032 
0.002585438670600844 
0.001080564710271745 
0.0001357773935255128 
0.0003101742567921876 
0.0003386971356191998 
0.001700622063085265 
0.009172528224152323 
0.004256283067121212 
0.0003979488488856548 
0.002105028351864473 
0.009736236639461996 
0.0002887262400699466 
0.0002074958035748402 
0.0007173926675198194 
-8.781954900847413e-08 
3.073491866349207e-05 
0 
-0.0009963745232092003 
-4.742929085553365e-08 
0 
-2.365444789581557e-07 
-0.0001207090244384297 
3.801763497638721e-05 
0.0006904025581894156 
0.0001750561850722766 
0.001897949169975577 
0.002659526433465560 
0.007081615321430518 
0.003914339753583549 
0 
0.001218068092595887 
0.003867830720327470 
0.002516144882484928 
0.001781396227440154 
0.003283183506542758 
0.002150739647884792 
2.379233522346219e-05 
3.461025911404080e-05 
0.001813344405540962 
0.005842963240651988 
0.004256312689870055 
0.002185827652809436 
2.733539178191963e-05 
-0.0002329922327782969 
-5.529244592400025e-05 
-1.738560673127717e-05 
1.358151511827627e-05 
0.003740711169167603 
0.05630435952673024 
0.008672828610069590 
0.001676662884355684 
-0.002265093842653094 
-4.683988229657591e-07 
0.0001791152248707436 
2.733539178191963e-05 
0.001074470099914158 
0.0002155280500972917 
0.001130296734520848 
0.0002467955701116954 
0.0001951678654723113 
0.0008338512153038922 
0 
0.0006754057085510240 
0.01651371608692798 
3.793342573978428e-06 
0.002125445123239714 
0.006005733671838736 
-2.895510178691873e-05 
-0.0001127504151693127 
0.0004662129848909191 
0.0002064191342997262 
0 
0 
0 
0 
0 
0 
0 
0 
0 
0 
0 
0 
0 
0.0006634488632080050 
0 
0.007831140149245169 
0.0001928277721353239 
0.009442411535621139 
0.001531775549538047 
0.0003060981340181602 
-0.004206569383312667 
0.004312904326596964 
0.007850934073077354 
0.004216665695294579 
0.002441790495320832 
0.01631658359742536 
0.007553285786330818 
0.006583451217808204 
0.007289618552256607 
0.004620324280599194 
0.006848810440070761 
0.001206435224936165 
0.0009606456439722855 
0.003147986745311794 
0.002576105189363284 
0.003221571965464435 
0.001251254135719660 
0.001926457965891760 
0.002320164517965438 
0.007618302239750505 
0.005443636592009558 
-0.001153307169302580 
0.0002768165904224328 
6.763497526853605e-05 
5.169434432213534e-06 
0.0003989022489030260 
0 
0.002441412517386410 
0.0001451983066323469 
-5.176542676021728e-05 
0 
0.0007228673656724452 
0.002216423210921250 
0.001951993198162110 
0.001890015730917238 
0.0002036186797221793 
-2.391793607952547e-07 
0.0005335793793203730 
8.769330398061094e-06 
0 
0 
0 
0.001536479985640001 
-3.076492277086628e-05 
0.004515013369160048 
0.002088843258356904 
5.545280419670679e-07 
0.0004841147495947160 
0.0002427998448816547 
0.002067494181742007 
0.002631882839317231 
0.0005573584577324999 
0.002504636339589091 
0.0008755337835452304 
2.860595172656515e-05 
5.317763257289962e-06 
0.005052460834210907 
0.004292197113584983 
0.002889816949242458 
0.007919380050522026 
0.001218747384182443 
0.0001441233309282086 
0.0008401285292309036 
0.0008510301564533670 
0.0006230270709375469 
-6.918001946650917e-05 
-5.728735539792606e-05 
9.757451893949418e-06 
0.001225765826617117 
0.05066033321499600 
0.04006145312747756 
0.04578560329033300 
0.02300412801476676 
0.02005211765524320 
0.01888580643983955 
0.01891033098024923 
0.002560083338033681 
0.002115174404433704 
0.005108226552002384 
0.0005566247948722933 
0.002442221384553401 
0.003212825340234503 
2.077254953748882e-05 
0.002677962517537135 
-0.0007302208183637272 
0.001199607139220179 
0.0002763819004282986 
-0.0001280253800649993 
0.0007400591371715672 
1.830041708172715e-05 
-0.0001378014295986091 
0 
0.0003723143837888029 
-0.001429496714085645 
0.002371989313069397 
0.0008306637820968225 
0.0008348506760968872 
0.003120888514128420 
0.002430145592232774 
0.0003506949784278351 
0.0004314929963379387 
0.002956002890032209 
0.0008619917993371813 
0.0006766424871113336 
-0.0004950840835405366 
0.0009365761414276116 
0.002066413541381333 
0.002940700982472284 
-4.422412551869176e-05 
0.0006293568937392942 
0.001341506441073783 
0.004693146741945745 
0.002558702488008966 
0.003550215848671650 
0.003337775772332027 
6.895896039022683e-05 
0.007273163955232980 
0.0005327944147312006 
0.0009835706057672510 
0.001918266099326257 
0.0001428184210736150 
1.051689328086157e-05 
0.001318189650394047 
0.01013462305131390 
0.002742519635196823 
0.0002397340936753802 
0.0002741208884728746 
0.0001503054713800351 
-7.366905895480012e-08 
0.002531354580423259 
0.0008047936973610237 
0.0003807036265548331 
0.01156480500234640 
0.003748840521995505 
0.01495819609545879 
0.003965770567081730 
-0.001426259201993559 
-0.0009609234851756794 
0.001615780776607048 
0.002669681460064903 
0.004950582177166154 
0.001937947214568821 
1.104076093259604e-05 
5.216718674880800e-05 
0.001954143640604875 
0.003644941055698472 
0.001663934843721923 
0.001960939927716083 
0.001138734407461386 
0.01065342746532584 
0.005527896198819260 
0.005048868204597001 
0.0008244746855999883 
0.001965358391648036 
0.001943045289931086 
0.004736584044515918 
0.0007868216671149670 
0.002143186338902649 
0.001192138700913365 
0 
0.002058008483021460 
0.005477738231557738 
0.0003395950058140284 
0.001008928854661809 
2.270265511359106e-06 
0.0001857564676937577 
0.0006458513619699400 
-0.0004075821832197226 
0.002060018964851849 
-0.0001443345197239624 
-0.0001327145751847167 
0.0007027443886075424 
0.0002537036845947044 
1.395329564528696e-05 
-7.633795764018813e-07 
0.005948614224513945 
0.001713357394183338 
0.006040164869313717 
-0.0002306745818000353 
0.01171380679597674 
3.372290162240152e-05 
0.002347406396683295 
0.002296233790420273 
0.002058103548504476 
-0.003163665237147483 
0.001461751104755442 
0.001673094891670540 
0.0003753908197726559 
0.002103495219133654 
0.0003234137100474076 
0.0004107897563548579 
5.302209056616065e-05 
1.371401874705393e-05 
0.0008892180822236719 
0.001451758430633073 
0.0006306075960930298 
0 
0.002741764185850978 
0.0007723051580575464 
0.0003377812859679108 
0.002888824806443203 
0.002503279545681377 
-0.0004180599133124906 
0.0005557724745480438 
0.001964113878826319 
0.001676871166921138 
-0.001271978577342142 
0.0009319089977324856 
0.0006337579661217872 
0.0006437928410715869 
0.001541920412079836 
0.0001363577069560634 
0.001222340154624220 
0.0008353060594564311 
0.0004681670597024084 
0.002977456657689543 
0.002591222682062882 
0.001636082458730931 
0.002357975583129005 
0.001440291002380106 
0.004687624716953320 
0.006651826742547923 
0.005481927441154704 
0.007379690505142824 
0.003486162521214523 
0.01796600708785850 
8.418903693275167e-05 
0.002084666552527814 
1.479826517324555e-05 
0.0008808641159880693 
3.144118888263439e-05 
0.0008463366311674820 
0.0005539869168413941 
0.002948988015786657 
0.001097193653438800 
-0.0006439339727839394 
0.006512317507342240 
0.006544937588654036 
0.001319589917873225 
0.001172867424401799 
-0.0002701795239733089 
0.001827725255170857 
0.006390239015595579 
0.0006085009779359532 
0.002664174868218476 
0.002010757547428882 
0.0008172044436249424 
0.0002196953314387607 
-0.0002649728385427250 
0.0005966762558452591 
0.0007547421197991110 
0 
0 
0.0003478506121759270 
0.0001661801082046202 
0.001423309254898731 
0.001493851021156699 
-0.0001964244928200416 
0.0007361842555891419 
0.001495614296723382 
0.001121542857623597 
0.007157720574417928 
-0.0001326339090019746 
0.001868693417586414 
0.0001973299017897276 
0.0003062544698021801 
0.001174218013210166 
0.0001958518178934909 
0.001046739303059947 
5.980590232294449e-05 
0 
-2.579968007807900e-08 
0.0006454711709581559 
-0.0001495414460153211 
8.769527768829931e-05 
0.01252240853004607 
0.0006093769758023378 
0.001125975046121042 
8.632582446886331e-05 
0.003972361614592548 
0.001259168765243848 
-0.004650192391856165 
0.005775193797378252 
7.173077060169822e-05 
0.001615469727171880 
0.0004875604147787229 
-8.317114292959282e-05 
0.001210793463806102 
0.001067205151241472 
0.002759380815028031 
0.005305510002574091 
0.004989841114441056 
-5.272304127361629e-07 
0.0009322632281974079 
0.0007508623469017829 
0.003115549831658607 
0.005521065105997380 
0.005730849675475768 
0.001594317317712764 
0.002101785529781537 
-8.860911619173420e-08 
0.0001951891787029383 
1.792350424244501e-06 
0.003280945204501042 
0.008523661403982374 
0.004318889670040606 
2.354437236215336e-05 
-2.788694719558965e-05 
0.004940988510465924 
0.001713828185441485 
0.001598878961069194 
0.001820943308030850 
0.0005777837736206209 
0 
0.0004728499385479982 
1.480013727048639e-05 
0 
0 
0.0001614575912895367 
-0.0005582855768300930 
0.001246798051505950 
0.03879754373069307 
0.03449881187412809 
0.004610980979756575 
0.005181808389348945 
-1.032363209305989e-07 
4.798791407662884e-05 
-9.799922319817326e-08 
0.001577564700332309 
-0.0001244487353896036 
9.299420671026647e-06 
-0.0002553403437464246 
0.007451992140424269 
-0.0002236001545662354 
0.001897738883955253 
2.109313739406384e-07 
0.002873646146575577 
2.650485840655125e-05 
-1.446357912681434e-07 
0.001300626116020069 
0.01441149207251329 
0 
0 
0 
0 
0 
0 
0 
-0.0002659903474843824 
0 
0 
0 
0.001923743036454074 
-0.0002314088643887024 
0.001867220099310767 
-0.0001881842289228970 
0.004073890679180701 
0 
-0.0002551817645403239 
0 
-0.0003027250428133396 
0.004784343303538031 
0.0002835746301674939 
0.004186374324974608 
0.001057366119329742 
0.0003673803440079414 
0.001841880297734759 
0.0004366541372056441 
0.0007744746673350638 
0.01057687782860136 
0.02173840157548551 
0.03884508883469764 
0.03748231426363502 
0.08093386064590484 
0.05560414926759505 
0.04822998414181211 
0.07496828037765205 
0.03770279089167881 
0.02694243987487742 
0.004519737018591812 
0.01557767655518817 
0.04192157117763370 
0.02614980727863131 
0.03712948983901855 
0.01985580744779157 
0.04295317757591055 
0.02598993657889596 
0.004034481280067312 
0.01598805128744784 
0.01671334175334168 
0.01008688092935821 
0.01813992999910619 
0.01140272535331775 
0.01024920732484615 
0.01280194644717840 
0.01755960258536986 
0.03433872295512675 
0.04849320910559993 
0.04697860016370312 
0.03680843420387138 
0.02733849682302538 
0.03382914279199294 
0.01462295992672369 
0.02220556029186042 
0.01872284819700432 
0.02088225583552015 
0.01486610933883745 
0.01021130116822735 
-0.002483614911101361 
0.0008854762857931917 
0.001707041301278527 
0.001192269798499077 
0.001437053103784634 
0.0008778884035436993 
0.0002584809703505678 
0.001575953732635933 
0.003341245477588305 
0.001112068442418139 
-0.0004424425402812083 
0.004747036431037894 
-2.541564551518773e-05 
0.001178988078039471 
0.002579981148607924 
0.002488807087751231 
0.003509410034281596 
0.0009133557835350373 
0.001544276510932623 
0.001215467990394830 
-0.0007254698266714631 
-0.01618866518413051 
0.08102087030703087 
0.09482335155049740 
0.09458762688086153 
0.04881520576161032 
0.08947919040282810 
0.02726245925813705 
0.02886620654297769 
0.02582418756958722 
0.02105687603141677 
0.02730227556099255 
0.01074658318424176 
0.01666885435715226 
0.01018319022650121 
0.009842748842921772 
-0.006721374959093353 
0.05089387875432809 
0.07476966722524883 
0.07592154720692804 
0.07180807616944443 
0.06048295844756492 
0.02176340287012663 
0.03022155382215155 
0.03581307266044100 
0.01780592799825832 
0.01564296423974733 
0.01477380453642887 
0.01058962861349819 
0.009899858220096550 
0.005702194999373096 
0.007751558392405588 
0.004576918901938150 
0.008170967838743437 
0.005155849568356624 
0.003142661135260060 
0.003823978207327293 
0.001195836955782106 
6.044838248254631e-05 
0.0005514673390680285 
2.576829814680129e-05 
-6.026627393876881e-06 
-2.997638276461728e-05 
0.001550305866937112 
0.001638493859283201 
3.161715318602361e-06 
0.0001395751738691627 
0.004632717661015484 
0.0004986869721236799 
0 
-0.009551251514697805 
0.0006811380004192698 
0.001213032042372089 
0.003117402237121702 
0.001333580225540487 
0.0003119643447244848 
0.002089061718945092 
0.0008876984246202404 
0.0001471163536511256 
-0.0001163763957975375 
0.0004369669517396213 
0.0006352937148680825 
0.002713013221096183 
0.0008643219442672159 
0.0006569758360864447 
0.0001003959357764867 
0.001329001685719780 
0.0006346095561676273 
0.001604639199784315 
-1.899558780931311e-07 
0.006064039410164070 
-0.007685662098021888 
-0.0001607964623941649 
0.002206167488530959 
0.003760423144732315 
0.003505972591167952 
0.07309147245492069 
0.08998695371794191 
0.1855792827610699 
0.1609533476307281 
0.1281859249563571 
0.08380679307278786 
0.06914115506795196 
0.09261097239445260 
0.03840734377096480 
0.03389917869507680 
0.02525125381147822 
0.01257524580340784 
0.01045407645737669 
0.004310391924842935 
0.002093599531633634 
0.001942504048030930 
8.124459445571421e-05 
0.003583831359439256 
0.006206505125246137 
0.01476212611601251 
0.1464647612976933 
0.1021969524557262 
0.06473908485120933 
0.05917252201437985 
0.06347047295740191 
0.03642299253165436 
0.03410573956019401 
0.01853905740917916 
0.008976888622011278 
0.007738851961430425 
0.002324052283399446 
0.007220867576486404 
0.02029192662377641 
0.03981809341695335 
0.04227181595317638 
0.02493182978995710 
0.02466196380710093 
0.02159124053630973 
0.05280688475957204 
0.03970284495381272 
0.005441412493687819 
0.03625475418334655 
0.09282445647898477 
0.1206953176702434 
0.08066302212195875 
0.06700427274455381 
0.07141316889076907 
-0.01150412394465399 
0.04955954485449186 
0.05024124839195632 
0.02631296297431649 
0.01681285336140710 
0.04286153220819455 
0.07311407981955517 
0.07068181846802150 
0.04727601583294941 
0.05305995422218647 
0.04427624670641327 
0.03501994528039124 
-0.006496931923167261 
0.004585835683430391 
0.005974093067637742 
0.005016897596691033 
0.01493268432128362 
0.007262622932866798 
0.02320364358754574 
0.006427598441087873 
0.01158234609326917 
0.002078626854994901 
-0.009524621409972107 
0.02145725712366100 
0.0002381019129806567 
-0.003702851119451610 
0.0009668694399295311 
0.003375283248205501 
0.001214041180326814 
0.005250210204647417 
0.007161546837369580 
0.005020846938207636 
0.005441429446007317 
0.002670068314653403 
0.002466694865102720 
0.002681247935411137 
0.001959101465787024 
0.002270856074130610 
0.003800795268810406 
0.0003526350907826584 
0.007100660494228436 
-0.0001396956389949559 
0.0001398065294175052 
4.782583128870250e-05 
0.002153204564353931 
0.0004984065634742938 
0.001801621880918103 
0.01076149989902542 
0.03098934091006355 
0.01687749048055807 
0.005819169272092769 
0.009053584861045853 
0.01671957267650576 
0.01587174506920690 
0.009693219659725074 
0.01261613894292116 
0.02395187474119926 
0.02396506578819652 
0.005508189085603946 
0.0007482390907369553 
0.002112393349884340 
0.005828081031242908 
0.007878904932575271 
0.009797364762067922 
0.004241866157202063 
0.01037217671695375 
0.02528694927403314 
0.03945086513870250 
0.03408341952686129 
0.008692767152803150 
0.001007671250007279 
-0.002067266332268839 
0.02417287569857967 
0.02696458207409996 
0.007921763568707852 
0.01548256224774448 
0.008825786124421964 
-0.001025420470190450 
0.001982878075437309 
0.005523578794314363 
0.002354689188129199 
0.002292879734584114 
0.007059952799072532 
0.0009297691496658263 
0.005127205599703944 
0.001395231349167607 
0.009440670806557737 
0.007376188726896666 
-0.0003007144343367142 
0.0009375706080075719 
9.860132458640807e-05 
0.0003066615100099541 
-0.0002313024501258978 
0.0003153892884376880 
1.006664856477244e-05 
0.007103287800286032 
0.001796981825195383 
0.001537296708671420 
0.005082895302350351 
0.003861391993903826 
0.002817378153048772 
0.008916960651000425 
0.0003632973513804577 
0.0009303432066636588 
0.002278901770472363 
0.0003842576660163268 
0.007092520409176210 
0.001202482847974270 
0.001869218608787473 
0.002980855143840581 
0.006964268709399015 
0.01088864588496695 
0.01987243741625398 
0.005860403728387099 
0.005638782489053808 
0.001358402842232996 
0.001658154077534899 
0.001110730818547628 
0.001619124509412206 
8.058714279902905e-05 
0.001894704937093476 
-0.0007195199835012482 
2.923591591092332e-05 
0.0004739664076443792 
-7.300219197111461e-05 
0.0003123828470790823 
-0.0002483682691740338 
0.001023370822384050 
0.09348465893578090 
0.06224333674095001 
0.04172866458096676 
0.02416832580107090 
0.009047424238804665 
0.006094900814298608 
0.01905069276505994 
0.003395192428478192 
0.009996302814320733 
0.0003177028160403877 
0.1137765240483966 
0.1808612883294324 
0.1489011077100301 
0.07855119799329957 
0.09759846508543611 
0.09454588099235386 
0.05869675038486970 
0.03444219359801450 
0.01938311150506053 
0.004575276207118798 
0.002737657435574407 
0.002219260435789850 
0.1181579249616111 
0.07557514215264925 
0.02241680856027925 
0.02070669214127012 
0.03504839667323120 
0.03412905749424681 
0.01365327024848519 
0.006608657067271192 
0.005460094703591308 
-1.645798413699834e-06 
0.001019854162286431 
0.001181512789075128 
0.001019333751473775 
0.001396459593749980 
0.0001700269131371085 
0.0003739418086249302 
-3.106760146735431e-07 
1.040434850112114e-05 
0.001866724352644538 
0 
0 
-1.796171081251142e-07 
0 
0.0006302643813534526 
0.001411393065331614 
0.0001691797163593276 
0.002147105441619938 
0.0009931799904759492 
0.0004616561457824628 
0.0004987515551651580 
7.558970803114584e-06 
0 
2.069394721181120e-05 
3.864749581240269e-05 
0.0001119039853526612 
8.504935962717168e-05 
0.0004087338824434612 
0.0006085300466346386 
0.0002151198953189062 
0.0004179284206328129 
0.008657486404310223 
0.004784343303538031 
0.006230361475079584 
0.006353872702150309 
0.005325432786778454 
-9.299714096084307e-05 
0.002253691967046607 
0.001644135601136798 
0.005515930014615135 
0.003433537730931773 
0.004664456563945070 
0.006795236444252954 
0.009917504373586714 
0.009454979348578026 
0.008533671947234143 
0.008945322051929078 
0.009425106949342307 
0.005937988447170303 
0.009921931938641798 
0.01139975340220276 
0.002697386271696104 
0.007938533995490323 
0.01686714434868926 
0.0006691328751597398 
0.01697618749735660 
0.004204463180276689 
0.01735357538126631 
0.01573792582419678 
0.02110605266660716 
0.01660821549515803 
0.009818934898597980 
0.01140207903827030 
0.02051306767198925 
0.01505281292915418 
0.01489113704204513 
0.01620100239705256 
0.02688080704428558 
0.01371970820075800 
0.01441494470741248 
0.007895509634266962 
0.001075282250153898 
0.02229305037979062 
0.02526207590041024 
0.02053559473123818 
0.03019066375464862 
0.04307100450141631 
0.01497510506809485 
0.01752272206366963 
0.04890816045868017 
0.02255260424751302 
0.02657984491089594 
0.03818633740913292 
0.02678141566498454 
0.06438572001117454 
0.05842760024410142 
0.06215277876923576 
0.05618577925095046 
0.04502914914284426 
-0.01405940030479614 
0.03461230140834176 
0.07574795842388177 
0.04826598898748414 
-0.02716072959748702 
0.01932009264141578 
0.03087160927512344 
0.02991430283410513 
0.04188294644776597 
0.01666916542086346 
-0.02065016217976862 
-0.06233819772304414 
0.02401947096567884 
-0.04830711338064117 
-0.003740384901465821 
-0.05163637789628327 
-0.007308708582242258 
-0.02259766732695502 
0.01527933896256518 
0.008298497649075125 
0.01008408247378886 
0.001824647596320691 
0.002312255690189248 
0.0004825118561476686 
0.01212545391651901 
0.01880275559196796 
0.02284324426256867 
0.01222926204874959 
0.01976947004562064 
0.02704515635114481 
0.03091273404791627 
0.02899589242543677 
0.02079999616971858 
0.03257608104954535 
0.02094628130733539 
0.02800516749079536 
0.01735812779473433 
0.03591069230268850 
0.02630557421940261 
0.01686329631007616 
0.03650626883464841 
0.02033226791237292 
0.01740136672990419 
0.003645548605502961 
-0.003232484467946803 
0.001026461745958818 
0.003856780403437427 
-2.006443257920106e-05 
0.001242636541101811 
0.004937103655624700 
0.0007756587693860845 
0.01185613521210447 
0.009108219583158970 
6.637611697689447e-06 
0.006938637682909513 
7.105838441996454e-05 
0.001346270097864331 
0.0004392114560578378 
0.002782522032174102 
0.004878172040024116 
-0.0003069382375042006 
0.007036609279222666 
0.003641855546729743 
0.003913867579651379 
0.0002711633087944935 
0.001661116270316464 
0.0002050768638886583 
0.002249520004964155 
0.0004527074656438525 
0.002908661262161816 
0.003095662933101174 
0.005382282981620023 
0.005431114974583385 
0.001553008036107201 
0.01150204320833944 
0.003646006733559390 
0.002277964791060987 
0.01688893532121985 
0.01642173769254419 
0.009332745988890995 
0.01598092784864454 
0.01208074523917101 
0.01286427705019845 
0.001773686034385104 
0.005292901973981515 
0.001698372992290956 
0.0007333210553551589 
0.0002149698987945384 
0.003999689705992895 
0.001056372130913273 
0.007947923666240590 
0.0003087552235810674 
0.01160171960620573 
0.001903731557831435 
0.001146190865228814 
0.003472901511052492 
0.01165800453076983 
0.003774644728881220 
0.001541078360617828 
0.001077496668248856 
-1.135389202745426e-06 
0.001228543661510982 
0.004219782379684260 
0.0007407808711730703 
0.0006061356536454429 
0.001090420005025639 
0.001052078721113073 
0.003880077073193619 
0.007805621660067977 
0.0002048505234406140 
0.0005674713440274560 
0.0004961066142133736 
3.616507928038900e-06 
0.0001141920473642099 
0.0003389857174784596 
0.001024454253537610 
0.0002222433140383625 
2.244365189742816e-05 
-9.977726786158117e-05 
-0.0001385829414003083 
0.002709887081160870 
0.003611728257832374 
0.003642343956791180 
0.007362548080882568 
0.005300090942087703 
0.01303197830355856 
0.007267456226944491 
0.007319104326044016 
-6.743371977447352e-05 
0.01526936784720922 
0.007003212667969048 
0.001199317008058917 
0.003805400736508515 
0.005367371250283198 
0.0009553496883443966 
0.001287087850603987 
0.0008688752433316500 
0.005483192819672844 
0.002354492901905828 
0.002169268926971332 
0.0003217694126338172 
0.002974148708185667 
0.005934620286846345 
0.005418159088243037 
-6.563174305675261e-07 
-0.0001961134509323658 
0.009249912128901848 
0.0001207407180072508 
0.001191058583034164 
0.0006189149416656078 
0.001822533801900584 
0.002460140071208896 
3.314656040578665e-06 
-8.757591253657228e-08 
-0.0003150444332784599 
-1.604878045380437e-05 
0.0008832711518938205 
0.0005457539042868812 
0.0003223584335960823 
0.002528902935945978 
0.0005120271736824272 
-5.513428784354715e-07 
0.04545871381161270 
0.0006315499661427287 
0.01730865364460463 
-0.002800703286978254 
0.0007174038884512400 
0 
0 
0 
0 
0 
0 
0 
0 
0 
0 
0 
0 
0 
0 
0 
0 
0 
0 
0 
0 
0 
0 
0.005267881590255140 
0 
0.004467585502690732 
5.248690872337103e-05 
0.002910817227212433 
0 
0.01161252778698567 
0.006923053459359063 
0.001775147906473010 
0.001751924338967499 
0.001347498632992696 
0.0006483842397650142 
0.002416288666918134 
-5.774419950550585e-05 
0.005789060473070773 
0.001677656219985399 
0.001359088606459367 
0.0008276444026431360 
-0.001147400293299117 
-0.003795487594452010 
0.004658439994062647 
0.004096530712937712 
0.001308845923030220 
0.001717215746221635 
0.002517956914370297 
0.001417193128758404 
0.001752553551357465 
0.01413281733827994 
0.001118999903151634 
0.001803564355449806 
0.004030796755731707 
0.002049260740781739 
0.005492493777406762 
0.003495927265862610 
0.0001111321055642139 
1.343880154144964e-06 
0.007109371142903624 
-2.428921806330408e-05 
0.002449021105571355 
0.0002430914883007579 
0.0007050631334064692 
5.403291200795563e-06 
0.0007283185194366134 
0.001884983255270371 
0.002049544526068193 
5.970507495691451e-05 
0.002178567788730151 
0.007533495578811946 
3.322402042325088e-05 
0.0004053663645008697 
0.001722439939409209 
0.001907407412568380 
0.0003146071051344776 
0.0003729052631536770 
0.003507302087382524 
0.0007080014179907811 
0.001378253281565048 
0.0006434237917991111 
0.001215913381933129 
0.01728171802828989 
0.01224111144396435 
0.0006126196186254679 
0.0008509553179341172 
0.001725154206048646 
0.004208479117227877 
0.002747293416711745 
0.0006744197092085926 
0.005423694106901407 
0.002952935692900941 
0.006739129354951775 
0.004474526460927396 
0.008199217888754027 
0.004694018291263740 
0.003830678869039709 
0.003275968305495306 
0.008939654807365187 
0.001340057014346243 
0.001601845909261819 
0.002889969530141086 
0.003187263009355533 
0.001181025828224078 
0.0007913499807180270 
0.004235119339182995 
0.001278277482240742 
0.001160357775190417 
-0.0007062024939672468 
0.002659625717808456 
0.003659162123748723 
0.003065019158694395 
0.009959606159177077 
0.006727655479036563 
0.008040166136034324 
0.004197521781325219 
0.001824435227884371 
0.0002313237759257133 
0.0001880269733991415 
0.002992962884355428 
0.003376903410054797 
0.01538121499269994 
0.001683764939820597 
0.001827225312799350 
-0.0001757158667502326 
0.001474199528177129 
0.0002995406032391408 
0.002127262888912143 
0.002207322878579609 
0.001891202259015999 
0.002247349311682214 
0.0004390170947507426 
0.0008759900768034860 
0.007011539100356760 
0.002930514344388248 
0.002095927103557796 
-0.004704269527954598 
0.003270978878641135 
0.006408792365844953 
0.005698056509603206 
-0.004566577785950386 
0.006166413357783403 
0.003762383997229665 
0.002412318993594796 
0.0004911419437362963 
0.005407791488217242 
0.003418928346538171 
0.001038362525365843 
0.001113756583945860 
0.0003377561656772701 
0.006910665678580131 
0.0005431189296641500 
0.0006743138934105666 
0.001645977966368258 
0.0002812325872825859 
1.114583446559948e-05 
-1.558466172651747e-05 
0.0002393318971133398 
-0.0001457466694398908 
-3.867854849486993e-07 
0.0002775882101834790 
-2.902290521147496e-05 
0.0008158741565384999 
0.001188563097971588 
0.002417883384652441 
0.002859621012873937 
0.003430270568068490 
0.1248551834122698 
0.06493219097112307 
0.03376492724815419 
0.009431029383268025 
0.01142817773295408 
0.008517377689743696 
0.006348174079148300 
0.01136242740256281 
0.01133816812174914 
0.01249664587457201 
0.01454154531267322 
0.004755892711277576 
0.006183997562205240 
0.001932189479034928 
0.002954587467434640 
0.002253215310394404 
0.0001097277298222761 
0.0004602410453056617 
0.001199967385875918 
-5.218994112266316e-05 
0.0002318399485834452 
0.0008871161238397871 
0.001280024698448452 
0.003963969447902163 
-4.110036917208301e-05 
5.974404966070547e-05 
0.0007259923375299095 
0.0002836524922430647 
0.001224812332883575 
0.0002915454221363218 
0 
0 
0 
-0.0001719798601640476 
9.236586939271448e-06 
-0.0001025618826757567 
0 
0 
0.001591253365168113 
-0.0001563210725108188 
0.001443693017588567 
0.002590391698367056 
0.002765535871907094 
0.0001696335278551395 
0.006127538532250056 
0.0007191904146636121 
0.0001059582737619681 
0.001923750568727241 
0.0001120103857982205 
-0.0008919514560669327 
0.005038449902995877 
0.004785013119939256 
-0.0001476809772054777 
0.002435612456882048 
0.0002151606564862331 
0.01145093572503264 
-0.0001164236340788872 
0.004560830468543171 
0.002100481815950122 
0.005132792921329071 
0.003119390114004234 
0.003993935700877056 
0.001624707456965628 
-0.0009137723230768591 
0.002252808537136928 
0.002020342573311081 
0.005696985095316373 
0.001707871311756589 
-0.001203124731431202 
0.0004738470600076414 
-0.0006031187457360151 
0.001752019938788505 
0.0003750038721782697 
0.0004016707926020056 
0.0003509343200321096 
0.0008337837696842083 
0.001542614244042639 
0.0007133431476321348 
0.006317097527214306 
0.0007973711860056450 
0.001333281923280263 
0.0001380795514279496 
0.001297115485103965 
1.544828772694187e-07 
0.001262540097544690 
0.002656422643689092 
0.004422637108463537 
1.292166005389366e-05 
-0.0006410881829610622 
0.0003966257519920132 
0.0009990958284111510 
0.0004480708811282566 
0.0009490519509616383 
0.005844392400359463 
0.001902203198348960 
0.001081739294087624 
0.003946775064110127 
0.001280154499864387 
0.003138714436596808 
-0.007971448716394060 
0.01480544247975962 
0.003557799019151763 
0.002712388736362962 
-0.0001246174605106181 
0.004353607704564713 
0.005517854574123511 
0.002444664474191518 
0.009373416048905311 
0.006133661067833276 
0.002285223882983349 
0.002437996628427247 
0.002992706312151422 
0.004362602619811470 
0.001299818022470224 
-0.0001031808341121700 
0.0002574391627134430 
0.002436855484310121 
0.0006428728414862348 
0.0002548420041620057 
0.002676221714122835 
0.0005446856083139017 
0.0005046130547807998 
9.018082067012073e-05 
0.0008351684079127919 
0.001203234891393226 
0.006264594047660875 
0.009304319538808134 
0.004493317344896377 
0.007225097043089401 
0.005696806205614432 
0.009502921974702780 
0.01276628357690220 
0.008297320498522708 
0.01101150921380862 
0.01461436551518847 
0.005449030865838415 
0.01763370656416154 
0.006628311254593413 
0.005231621801018814 
0.003490563789173965 
0.001095520988699138 
0.0006249421883701100 
0.005029518665540616 
0.008893587338665118 
0.007211349265428301 
5.749244428531837e-05 
0.0008227057010737753 
0.004378489223236652 
0.007493822181339168 
0.005743901388357413 
0.008675150515166206 
-0.001358066898556720 
-0.004704187924980693 
-0.001552610168011203 
0.005534215040929789 
0.008667523724222451 
0.0004655626866982913 
0.0009561070685534409 
0.0003642540991507571 
0.008673715358688320 
0.003013954281816255 
-0.0001314879286644333 
-0.0001630356145858816 
0.0007806899094567951 
3.947285353966040e-06 
-0.0003294405826220199 
-1.571719272002108e-07 
0.005954428914148507 
-7.773531287561138e-05 
0 
0.0007747298799377412 
0.0005557262298304837 
-1.115097252148426e-07 
0.0003420640385477776 
0.0002488634166960646 
0.0002043940289062191 
-3.291171005318983e-05 
1.136795202561843e-06 
0.0007110671998438211 
2.747686046717757e-06 
0.0001581551928566997 
-6.220347243367046e-05 
0.001190400880942148 
0.0002400877075550491 
0.001965443423622125 
0.001441654074314639 
0.006738990531366810 
0.0004308912206384615 
0.0005972247101266202 
0.002763458794594692 
0.004101960639723120 
0.002911712894367028 
0.001953977126051886 
0.0001527589207169823 
8.946120190715703e-05 
0.0001149781094787084 
-0.0005344284126654013 
1.097007896949805e-07 
0.005459740588187849 
0.0001006759268369894 
0 
0 
0 
0 
0 
0 
0 
-0.0002478016554844868 
0 
0 
0 
0 
0 
0 
0 
0 
-0.0002659903474843824 
0 
0 
0 
0 
0 
0 
0 
0 
0 
0 
-0.0002478016554844868 
0.001713500554939885 
0.0003235411865951724 
0 
0.0003235411865951724 
1.292331716343206e-05 
0 
0.004092824138001963 
-0.001265752092109351 
-0.001102950282811378 
0.004823368427292227 
0.001396604064455054 
0.0003825254782085204 
-0.0008371490121479451 
0.0006005290134469838 
0.0007524345417677230 
0.002233703832706861 
-2.432879189029245e-05 
0.001770874711486732 
-5.170879846909965e-05 
0.01283809082587171 
-0.008550572088070038 
0.0006669965602236220 
0.0004823292986661973 
0.01434152051240129 
0.008709613351455010 
0.01847768811526439 
0.01631291091062840 
0.01160292900026418 
0.02004958056721830 
0.006003560857901461 
0.009621185277567347 
0.007488336611226880 
0.01283546265514082 
0.01548800602153741 
0.01317812200364088 
0.01137117065133522 
0.01899572513565367 
0.007888123822879553 
0.006102981890679423 
0.01043770127076157 
0.008002767101675225 
0.009535673286802580 
-0.009685347922667560 
0.003128274182265526 
0.004897249714187413 
0.01085213836339288 
0.001919440106197760 
0.001440468760809479 
0.007241842718723664 
0.004447269016045676 
0.002930049658473591 
0.01564302013518176 
0.001807309851799460 
0.005842824104233981 
-0.0006092254629642664 
0.005264297478218991 
0.01451644488518679 
0.001842182805493052 
0.004754723685285206 
4.033290091384008e-05 
0.004136268341825555 
0.0004663278111345981 
0.0007580133152872311 
0.003817096078559941 
0.002560369139745065 
0.009009691259159775 
0.003419041402029879 
0.004170235506231543 
0.004391689084264338 
0.0006999433694236641 
-0.0003892012551605451 
0.003215877629428286 
0.001657418782417141 
0.0009386415954866967 
0.0004852042337747723 
0.003396102806708473 
0.004057147952515466 
0.009253441869700653 
0.004997220151047310 
0.008641422645173140 
0.0007611850749214346 
0.0009816009424220252 
0.001709296474011880 
-0.002624365018466064 
0.0007159686222986979 
0.0001682285929973052 
-0.0001889369991938889 
-0.001866773136503704 
0.002222411642252814 
0.009363990770844505 
0.009790342895397907 
0.01238229021058480 
0.01428639308765646 
0.01784929122787322 
0.01376810860319282 
0.002760305903193179 
0.0006037739240298988 
0.002416246868280326 
0.01059624613821362 
0.005485776475468806 
0.002991579901091386 
0.006437690490012619 
-0.002472917718735605 
0.01183864263107328 
-0.006639970995196211 
0.003271633571502559 
0.002064264461828342 
0.0006480158210000718 
9.852404259679134e-05 
0.003006702581864971 
0.007539414172311986 
0.001941736470686996 
0.0003362655125959200 
0.001271453501738872 
0.002271083313873870 
-0.0004892618913172798 
-0.007203331558463856 
-0.0003448270086759673 
0.0003750617344957996 
0.004601154533367954 
0.009172004320969585 
0.003027636746107577 
0.001791657111452596 
0.0003058004673176174 
0.0005859806585155340 
0.003778970671419231 
3.324810515398558e-05 
0.005740359265515613 
-8.600676808704575e-05 
0.0002693642822429345 
0.001943268920454584 
0.001767065817824478 
0.0004258781892174541 
0.001432559557763346 
7.111903946913729e-06 
0.0008160720704644761 
0.0009156202689191164 
0.001867040482202642 
-0.0002963271904847881 
0.0003731844372893456 
0.004015617455424284 
4.320421411023505e-05 
-0.0001267346631848367 
0.0001873859809326583 
4.452704836615428e-06 
4.640767235160849e-06 
8.300731142392900e-05 
0.0008061447891623049 
2.947108313935265e-06 
0.004740863899940251 
0.001719963148487376 
0.002912612425962103 
0.01055315813762525 
0.01157885588368775 
0.002795872356118820 
0.005294571108729886 
-0.001287644532838626 
0.006285614557639115 
0.003141404030102464 
0.001494603316305510 
0.0004764266060025241 
0.0007146250472416370 
0.001088287579497495 
0.002187706110772132 
0.0002143556841668258 
0.0006951168524823927 
0.0001791152476509847 
0.0005127938182690120 
0.001169530875435792 
-0.0002969769654350951 
0.0002593006493440845 
0.001647455021667698 
0.0004157893401120620 
7.855763892747717e-05 
0.0001118159835234567 
-0.0001244487353896036 
0.0009283156616203901 
-0.0002375581541918087 
0 
0 
0.0006059718650292216 
0.0005495216618633298 
0.0007288759830957389 
0.0008300051396023848 
0.001004310616778436 
0.002141897935981325 
5.301148697378814e-05 
2.162333224441988e-06 
0.007085909197435751 
0.0009435524296860311 
0.004244823889103900 
0.001095557520240343 
-0.0002645604733812217 
0.003829769483518020 
0.005712891741082976 
0.001015513952905860 
0.009744628451290984 
-0.002016132579285587 
0.0008426276535989340 
0.002260324204187703 
0.01412632580577920 
0.005687794136080975 
0.008939140897902681 
0.01272010388481704 
0.02466188294316999 
0.008482746736604195 
0.02023174608092914 
0.009831557032908049 
0.01536612293375359 
0.01139040961571619 
0.01506480595832645 
0.02292904821801106 
0.01239594384883661 
0.01594717824387754 
0.01811648391798861 
0.01339058600888795 
0.01413173695318704 
0.002333237532651840 
0.007305911058081330 
0.01215623359738165 
0.01505886618813670 
0.007855737286614930 
0.005206015229668733 
0.004062091574199305 
0.0007779944192931752 
0.001016906897755174 
0.0009467651163753383 
0.003543439517589982 
0.008411566827771458 
-0.0002974748254622494 
2.485827261754230e-05 
0.001137365610721185 
0.001107213013171230 
0.001497394299795594 
0.001005094961886028 
0.002539236624351471 
0.0002503453496151607 
0.001995406311280458 
0.002780621632307257 
0.003830288892660903 
0.004259385801606717 
0.005507094242723228 
0.004154582132615411 
0.003573489696528050 
0.004113819152630298 
0.0006687554021679847 
0.0007524077164173498 
0.0001785338015377100 
0.003490148265296673 
0.0006899635425420557 
0.0008116668013794889 
0.001035011474750593 
0.003733798980095275 
0.0002986800713253658 
0.002108250247340696 
0.0005042020314644890 
0.01177678993820166 
0.0007416360984253901 
-0.003326801731953719 
0.004931431830680727 
0.002309000314904676 
0.004696785726743336 
0.004235891270444829 
0.004320603933870944 
0.01169484510274849 
5.725024647405114e-05 
0.004029541711035420 
0.005437789937650796 
0.006976587702932600 
0.003138450679997300 
0.008388722360251510 
-0.0001724219880498296 
0.002749888143008304 
-5.725751696765091e-05 
0.001282269579169684 
0.001594928352262633 
0.0001147946804744458 
0.001043778073748733 
0.0008695254749747140 
0.001383598548543735 
-0.0003802376626054959 
0.006176483093052500 
0.001981317696600438 
0.002567672637853053 
0.002202650679284283 
0.003316371569861921 
0.004230642713985955 
0.005451988099895302 
-8.653170673369865e-05 
0 
0.0006092741174268523 
0.001677799677971158 
0.0001550004554328406 
0.001385922308097363 
-0.0004164523338059581 
6.006880299301214e-05 
0.002715231100048345 
5.420802507322949e-05 
0.002017323708133657 
0.001412888527055053 
0.01383305903436954 
0.0008277673209440958 
0.0008771621461590318 
0.0001639924374104672 
0.001615469727171880 
0.003769689041997898 
0.0001681507730181363 
7.560575359835767e-06 
0.0005493321116743520 
0.003098725080592679 
0.001363048927958418 
0.0008727058029551406 
0.004985389611028683 
0.0008928930409072916 
-0.0002184267285531709 
1.728016413611715e-08 
0.002917765844447456 
-0.0003070376865416216 
-0.001458326599302386 
0.0008242945006928357 
0 
0 
0 
0 
0 
0 
0 
0 
0 
0 
0 
0 
0 
0 
0 
0 
0 
0 
0 
0 
0 
0 
0 
0 
0 
0 
0 
0 
0 
0 
-0.001935488454057528 
0.0001276077440287252 
0.005418251635208373 
0.002331282145277260 
0.004948775665332331 
0 
0 
0 
0 
-0.0007072951433903629 
0.001002046525845012 
-0.002570992265908670 
0.0003945817461695848 
0.003193339629501378 
0.004826708058823724 
0.004603175964583394 
0.004014088622585866 
0.002212154291706378 
0.001604698829987965 
0.003787574377230385 
-0.0002475977868433027 
0.002618287171561363 
0.004839925237876624 
0.002469242051329742 
0.002056070947563429 
0.003846278791345994 
0.002777957411823873 
0.002119822606193398 
0.001082085606963422 
0.009306568177789083 
0.006947289497769217 
-0.0002302008852153151 
0.001486493041626454 
-0.001993226156065990 
0.008034788339956949 
0.004434474112721469 
0.005459650208113725 
0.001080249169557974 
0.004992184610908725 
0.001804429295896995 
0.005071386385558313 
0.003120020196608561 
0.002048854508377496 
0.0007629179223144272 
0.004066405969913674 
0.001350510792163249 
0.003470877972986012 
5.649250989071375e-05 
0.0002099073529582395 
0.0007819243834107552 
0.002851601500610981 
0.0009945222939884250 
-0.001544725491424919 
-0.0002721173653180203 
0.002812334123206610 
0.002834530702949659 
0.0004769299474583976 
0.002195288360319914 
0.004472513536418953 
0.002209126008602039 
0.001378020389229860 
-0.0001835351721462293 
0.0006146646937029238 
-5.134541781920480e-05 
4.657920876595108e-05 
0.002031231652804865 
4.211493259757138e-05 
0.0008953994684368016 
0.0004992324953377155 
0.001660158415004413 
-3.566015166738917e-06 
0.003767257876748734 
-3.136699882742399e-05 
0.0006286024011266268 
0.001653957624200381 
0.0005310557909910017 
0.001073405729093199 
0.0004370463598638215 
-0.002694714913034289 
0.002440004551921047 
-0.0009180166219368605 
0.002648198694820777 
0.002574210058928581 
0.002489455405707231 
0.0004218364598148114 
0.0006934885168555164 
-0.0009025492395769929 
0.001051793461876455 
0.002908082106467598 
0.0007929811118031004 
0.004390432146623846 
0.0004345098154679029 
0.001406334482148798 
0.0008111826352753082 
0.0005909345764375795 
0.002748162033146464 
0.0009250098235664188 
0.0007361997448528286 
-0.002665358575685244 
8.340098200417850e-05 
0.001417664404850141 
1.364292795980976e-05 
0.0001365436480829243 
0.001857814058779682 
0.0008267678662094458 
-0.0001640889739247876 
-0.0004005115959664808 
0.0001165872297053279 
0.001388752826418037 
0.001257873933009350 
0.002026692101528312 
0.0002736367237691593 
0.004827150033516355 
0.008455636584489565 
0.009124735307066223 
0.0005204352920787917 
-0.004507640789184702 
0.0005887104743332053 
0.0004954618518147940 
0.0008824450751645934 
0.001389346975081245 
0.004040034676795489 
0.002210539977759969 
0.008500970870684807 
0.0004705636470450487 
4.778956211273574e-05 
0.0002809616349526517 
0.002457818274382791 
0.006534762199454391 
4.964631449438787e-05 
0.0004858329057510006 
0.0005055170609263045 
7.417030951567717e-05 
9.895440285742895e-05 
0 
0.0006436276015525618 
0.001438361231788558 
-0.0001859286540767144 
0 
0.0002843304784082626 
0 
-1.121031539355108e-07 
0.0001292395923245235 
0 
0.004455242169782498 
0.001270996130754255 
0.003729014584023345 
0.002448342711070644 
0.002056246067017030 
0.006358915844885080 
0.0001986286114829632 
0.003208281797155280 
0.004949075812551065 
8.569033442014013e-05 
0.0004632454519751612 
0.0005675615606863501 
0.0001579676085263870 
0.0007966802383261433 
-0.0001042541804962133 
0.0004699906764906388 
-0.0002754077609986592 
0.0007312101213219157 
-5.535725033792742e-07 
-2.199703018912488e-07 
-0.0001358533884822957 
0.0008651742847476831 
0.002137983377240593 
0.002771018249013369 
7.588641039898866e-06 
0.0006959853332019580 
7.887341835839211e-09 
0.0003209569755994842 
2.065916402129107e-05 
0.01105422433770754 
-0.0005365786731326843 
0.005175648734000790 
0.0006956035283775617 
0.001389763350674089 
0.0003631311063756764 
-0.0006192757257155971 
0.0004489584365760055 
-2.255355716793985e-05 
-0.0003265531441388462 
-0.0005547425389515735 
0.003314632093832259 
0.001169160709004735 
0.002346608281890791 
0.0002851461774818253 
0.0002121741969649218 
-0.008757875485876820 
-0.0007899350976896049 
-0.002557096328733544 
0.01225146339507176 
0.004157729547515877 
0.006103919723492018 
0.002844321198024983 
0.008072966119143102 
0.004151307520316993 
0.001933216399672019 
0.003661431870762199 
0.008059165622779060 
0.001821633157579079 
0.001756006807203212 
0.003594436502024325 
0.002307920002343596 
8.071950723885035e-05 
0.007442801961190477 
0.002789243876025901 
0.002675647037661903 
0.006322352800734314 
0.007017320291703304 
0.006491677870894345 
0.01174159392146804 
0.01115064180015650 
0.0002168825692462295 
0.002336662344275064 
0.01375415395984259 
0.01850335371766584 
0.01227675441324309 
0.008030797114696390 
0.01210365746244295 
0.01162232524803997 
0.006344172320582231 
0.005773363474955443 
0.009237446959235233 
0.01324370848318512 
0.01199448492518895 
0.005773715335412426 
0.01064359573777146 
0.005319931930916425 
0.004203148594531331 
0.004433533067398170 
0.001851875620246731 
0.002867853152793321 
0.0001864482092992115 
0.003539950708165580 
0.002720859343738329 
0.001308922446484090 
0.001459090502961032 
0.01282034112441697 
0.002015152974642298 
0.001815648283252776 
0.003470116145006684 
-0.0008191397923165656 
0.0003453866148038903 
0.008846402027059606 
0.001141707128454015 
0.01494208963651288 
0.001098037734110243 
0.003268574830789796 
-0.0003189881407691629 
0.005254802187374768 
0.0002460704963310632 
0.003320800946114222 
-0.0007483895815738055 
0.001696016218986278 
0.0005203054909318533 
0.0006641430906277492 
0.002616152880451341 
0.002474200069141740 
0.0002331345094528241 
0.003323960090608317 
-0.004119822995580317 
0.01164738152804170 
0.005857628702165479 
0.002679998476811179 
0.001947626930307041 
0.0008120431996845540 
0.001499702608064203 
0.004686882319624452 
0.002331827679719813 
0.002562181363302328 
0.001357267790853895 
0.003107782973657770 
-0.002968370773809976 
0.001664554952835390 
0.002361694946651400 
0.001245695263566079 
0.0002019941682608365 
0.001592971224160896 
0.001031234290147767 
0.001499170170221559 
0 
0.0008873449097280511 
0.001739484122132487 
0.001455912892736495 
0.0003157762944452623 
-0.0001764325461445295 
4.661535754605069e-05 
0.004964600679435528 
0.0001848526262826530 
0.0004903886758458635 
0.001836369046214325 
0.001471477237331567 
0.0001913341965752675 
0.001680948563461196 
9.160767235839526e-05 
0.003393340156657064 
0.0008698673651458415 
0.003272073296729152 
0.0008119538260109044 
0.004217502540731164 
0.0007653702304865498 
0.004948584855775779 
0.003380046785215024 
0.001359239757752134 
0.0004555700464634243 
0.008519082711485906 
0.003974949426320457 
0.005070265672229250 
0.004061420063272262 
-0.0006042754963000281 
0.006105609582070772 
0.003869745521251355 
0.003062268182346790 
0.003551492769335822 
0.006166529973252063 
0.004578713155932531 
0.008703861829549318 
0.007480305109273028 
0.008532420102266243 
0.003953523084366634 
0.002871870507747898 
0.006654159068651079 
-0.006363782138577300 
0.0008676782944737228 
0.002117452947609537 
0.005061387698416056 
0.004199235987743541 
0.007843568344981618 
0.007108278271531598 
0.004089521245170425 
0 
0 
0.0008871760308183344 
0.003803795299648366 
0.003766238249434784 
0.0002126575302763200 
0.003292161143969700 
0.007326024885741760 
0.006861762189871788 
0.002780222544648967 
0.006914017949928625 
0.003184281476663642 
0.003859198272494483 
6.077624690064293e-05 
0.003064615116317979 
0.0002825960022581131 
1.292331716343206e-05 
0.0005866135736169851 
0.0006988313777784663 
0.0001465044924344261 
0.001868118643148738 
0.0006676094204817261 
0.002077544793943936 
0.003745257135573207 
0.0005700356161899638 
0.006860045356904520 
0.01435564078657184 
0.004532426919556051 
0.01044578856613090 
0.006895361441043271 
0.0006797021162781390 
0.001598782305502381 
0.0008582473049717669 
0.003276938872071805 
0.001888804980140094 
0.001555884663381598 
0.002377880048106123 
0.0001470827206922089 
0.0004738321509201849 
0.007211628029631836 
-0.0001064972398543385 
0.002617731219085129 
0.0002290551134563163 
0 
0 
0 
0 
0 
0 
0 
-0.0002478016554844868 
0 
0 
0 
0 
0 
0 
0 
0 
0 
0 
0 
0 
0 
0 
0 
0 
0 
0 
0 
0 
0 
0.005397344882367098 
0 
-0.0005426210603308806 
0.003881838275486937 
0.01431238348847067 
0.002600204214885990 
0.001289751161691954 
0.001014443890499823 
0 
-0.002164044886232108 
0.003346104125933379 
0.0001704805365075820 
0.0004687149938530832 
0.001926218982702561 
0.001798570379419016 
0.002479124014037668 
-0.007613894555680158 
0.002874512210421513 
-0.001977378359664272 
0.002264145908929238 
0.001906505918992927 
0.003227303754359582 
-4.938931984202694e-05 
0.0009244213869879030 
0.005779917464639963 
0.003252153496703317 
0.001859331777766483 
0.001392269598666546 
0.002054275021064715 
0.006147653273510867 
0.001330631009677152 
0.0004111138023785823 
0.006719013475100611 
0.002299440673963450 
0.003278396658482726 
0.005823377830131305 
0.001516307174392666 
-0.001964778278808046 
0.005092678223095992 
0.001786935123856246 
0.002428234490649387 
0.001465783999243571 
0.0004696070482336429 
-0.002360507010137269 
0.003323594290208130 
0.0007827270592563989 
0.0001760557536900758 
0.001106225814124711 
0.004735858040919996 
-0.0003148701256030369 
0.004022555551945875 
0.0002016468832319776 
2.448306536715202e-06 
0.001221086267564310 
0.001012428352169170 
0.001322580348632467 
0.003629303389423372 
0.004556674993086625 
0.0005187464575135941 
0.001433418912096002 
0.0001074964020679752 
0.004543124898840349 
0.002888806184157804 
0.002229749696158497 
0.0003261606247140089 
0.002582926032673871 
0.002120840386375510 
0.0009558834096128701 
0.001023665185829582 
0.001660824880896806 
0.002469394610411585 
0.001461135339047371 
0.006202897474928424 
0.002040752615577863 
0.007045204331707715 
0.001106015043189197 
-0.002650082514787758 
0.0009100732286142744 
0.001003137562255945 
-0.007519821867462037 
0.001663671124462270 
0.001674519497582193 
-0.0005837984690946550 
0.001077047960569595 
0.0007436934967140560 
-0.001672120455917155 
0.0001361295879852199 
0.0006589577127349775 
0.0005249005244078897 
-2.391814787638087e-05 
0.0007003294641646551 
0.0001906904190266992 
0.004402639340750371 
0.01548132002424683 
0.005139063511712068 
0.005732705627633397 
0.007803977580179760 
0.001466877320582324 
0.0009796103936108340 
0.001063202322897217 
-0.004648135581691908 
0.002029598724237954 
0.001667816333517152 
0.001886031480289587 
0.005959558437259864 
0.002931365207120965 
-0.003486120358122346 
0.01314686289551324 
0.004774947236532360 
0.005674296224479559 
0.002598985854894055 
0.0007502616414504388 
0.001224561333304048 
0.002862585303527560 
0.0006061995073705484 
0.006326225973224726 
0.001492352314731055 
0.0001832812439238929 
0.001902668057289382 
0.0002626416931134318 
0.0005846247184383748 
0.0001153310993008739 
0.001125996112326043 
0.001161471944496283 
0.0005629263393757051 
0.0005894645734977266 
0.005107897250168920 
0.0007852292604637951 
0.002002969971423075 
0.002361421057970576 
0.004332466063761508 
0.001433935721501126 
0.0007949299041256875 
0.001272150022491654 
-0.0009238805674931879 
0.0009257647241673651 
0.0003248049759944451 
2.601152131083570e-05 
0.0006451207501999912 
0.005727744513332989 
-0.0005600830956931580 
0.0007572717560703805 
0.0003460299016776496 
0.005001082118132534 
0.0008425249555492144 
0.0008139401699560065 
0.008499487714954390 
0.01125783386605335 
0.004678408557140371 
0.006786660306875239 
0.005789482775760741 
0.001179221732448630 
-1.940616538139364e-05 
0.001844660973295079 
0.001104456957531323 
0.0007246430700638960 
0.001694912311843630 
0.001404029583659905 
0.002196588776875326 
0.0005700632747804728 
0.0003789491408553236 
0.001453388854417733 
0.001261083640598598 
0.001012595735251695 
0.001790126985797139 
0.0007187753331051291 
9.270728017239421e-05 
0.0004585521764531371 
0.0001698230332454826 
0.0006719000675592711 
-0.0002237842096028954 
-0.0001780064531019809 
-0.0002136601977769135 
-3.331178940873026e-07 
0.001441781671032592 
0.001406050504902278 
0.001628706629789626 
0.0004213210898973893 
0.0008381449537492954 
0.006036678386368989 
0.002085552447704724 
0.001629090368851666 
0.002476331239272669 
0.001434026774815526 
-0.0002471936792467322 
0.0002840995813896611 
0.0003731476240130407 
-0.0002787199251220233 
4.188603054218004e-05 
-0.0002198151312118540 
0.0006809268808616273 
0.0006044459807802266 
0.0001120744309572545 
-0.006085654306419551 
0.01166861253604378 
0.005532974721828845 
0.008388288046363806 
0.003856952061933398 
0.003601110456947599 
-0.009151384605558878 
0.003515835070782967 
-2.898092131943693e-05 
0.01021799349220231 
0.005532308748243097 
0.006297783257302545 
0.003514902782963188 
0.005050435654674487 
0.008849918915744208 
0.003529604770576528 
0.004583232582659596 
0.001965063961323556 
0.003616932892878434 
0.001189717223537040 
-9.170936992387435e-05 
0.003518061379339054 
0.006945126253936662 
0.001222296125602901 
0.003457591695505234 
0.001082725443841586 
0.004025775871226752 
0.003093703715281291 
0.001409498727750691 
1.045140324400803e-05 
-0.0001776720391130333 
0.0008008957994945005 
0.0006593790766636578 
0.001523565738656751 
0.001991712613110870 
0.002953457964107442 
0.0009905771170966578 
0.001236547667810222 
0.003937712604102223 
8.236992520607963e-05 
0.004815554859034441 
0 
0.0001571190570193846 
0.001800147563919218 
0.002739103616080171 
0.007383149180017448 
0.0002189443314707301 
0.0007103495225721044 
0.001857751192318235 
0.0002869262652902731 
0.001392502924893825 
0.001178750371601096 
-0.0001968004742615675 
4.535840671337803e-05 
0.0004755245577786878 
0 
0.0005696202143390277 
0.0003022131061589671 
0.0005776325257275886 
0.0006767162490842653 
0.0003681800544821407 
0.002156557431593774 
0.001511265298483159 
0.003907007994803594 
0.0002169612433271749 
0.0006755847766776751 
0.001238561405986581 
0.001489995556236146 
0.001837264218029280 
0.0009088688769921812 
0.003477912389092358 
0.001770525985833876 
3.943379977289291e-05 
0.0003900474114551544 
0.005065488006133495 
0.002855783290516667 
0.004558162552046524 
0.001346236080441893 
0.001916644137702588 
-0.0007207768268629753 
0.002504148106279490 
0.002180243603023350 
0.005668372410372683 
0.005796592361741355 
0.002689343844309172 
0.001788452804233737 
0.003718683737261309 
0.003667869417114284 
0.0004787238584390765 
0.003145784269358637 
0.001303123161801690 
0.002103015240196069 
0.001740752255396969 
0.002901459682170530 
0.003337753010524372 
0.002199510083481142 
0.002639089212672099 
0.004319652472814541 
0.003417591822591173 
0.001489824234862870 
0.0003599809617986193 
0.001080639687256786 
0.0003729999633397070 
-0.002159008730951388 
0.0001470413789606657 
0.001773765379751418 
0.0008948938025507348 
0.0001097227732501755 
0.001080661870364524 
0.001910886192148861 
0.003045396960604015 
-0.0002651283081002882 
0.0006778723970923640 
0.001243727570232935 
0.001869002371595294 
0.004039288434941302 
0.0007897071869747491 
-2.051994988303579e-05 
0.002045732176338085 
-0.005739877645414785 
-0.0003384295831880105 
0.002331004917072694 
-0.001765040099796023 
0.006834476358369467 
-0.0002113966422292641 
0.001376973728374741 
0.001405747920692172 
0.001103030571855577 
0.002048628415536033 
0.001915461906358343 
0.001897988928227370 
0.001202754509227615 
0 
0 
0 
0 
0 
0 
0 
0 
0 
0 
0 
0 
0 
0 
0 
0 
0 
0 
0 
0 
0 
0 
0 
0 
0 
0 
0 
0 
0 
0 
0 
0 
0.001303044550494578 
0 
0 
0 
0 
0.0001778861572021822 
0 
0 
0.002442742210002462 
0.0002336833321685243 
7.825144058146714e-05 
1.598866296796962e-05 
0.001388802227753063 
0.009196123549711055 
0.002830076104784594 
-0.0002174538147418313 
0.002915598184502751 
0.002213659623079622 
0.003261401573459957 
0.003869976781876223 
0.001735181636364546 
0.001585172372866308 
0.003415760177065499 
0.002453044768403525 
0.006613367449386474 
0.001845251830479231 
0.001214698844094691 
0.007095428494140363 
0.001186359545676082 
0.002550353011119112 
0.002624579840304758 
0.004625445842350660 
0.001117706151552832 
0.002079232733041759 
0.003966888752694527 
0.003124094864998987 
0.0002151512887931838 
0.001226673924117114 
6.668221745440912e-05 
0.0002966165720479822 
0.003316725126833949 
0.002481460727496260 
-0.0002694532000032295 
0.0009784882006203840 
0.002541576402123011 
0.004042188494579959 
-0.0001160730862904627 
0.002365166282036080 
0.0007045527574469705 
0.001756121254616608 
0.0001595848857349513 
0.001716419403897562 
0.007277128129815000 
-3.140524154016515e-05 
0.001366008693827596 
0.0007704841449488709 
-0.0004558052656368546 
6.753813664066457e-05 
0.001558464260818287 
0.0006782165895263374 
0.001051306930744775 
0.002029352668343423 
0.003505230125796675 
0.0001179110296516726 
-0.0001732000825796578 
0.001897932453267334 
0.002812488880491157 
0.0006809761950045393 
-0.002330345111767772 
0.002193950083205493 
-7.717529264635664e-05 
0.001904425443820493 
0.0002268182136989799 
0.002236800982708008 
0.002748619371472524 
0.003862255418626515 
0.005470586912659033 
0.005011460007659337 
0.005306376148798905 
0.001353979906301763 
0.006807063075608355 
0.009844052665926407 
0.006039038847593558 
0.01280457266110849 
0.005975403182276041 
0.01113557989261566 
0.003584362696609568 
0.006234325919337467 
0.003302170594023988 
0.006186253765599935 
-0.005630051401136870 
0.001036077633456425 
0.0006154785015830501 
0.0001201053489266023 
0.0006716039695009718 
0.0002886065024778667 
0.001390763819714796 
0.006089564018927536 
0.002055190782570012 
0.004522330761206532 
0.0007055599272492640 
-8.152264739615643e-05 
0.001545140685977344 
-2.548942449757583e-05 
0.002534589414670834 
0.001642580233508634 
0.002281413595287974 
0.0003758471438782225 
0.0007302412694647948 
0.003514679770617123 
-0.0009059113484547621 
0.0002600185421162201 
-0.0002531496104652878 
0.002560904839105789 
0.004180909670970332 
0.003847443098419977 
0.002977375285919790 
1.421716336274495e-05 
0.0005851462896524608 
0.002214010703964885 
-0.001235308043036189 
0.001528872605026696 
-0.0003801623418946887 
0.003429377101993392 
0.003057146728029221 
0.002868254826259282 
0.002355245362754102 
0.0009073262965037117 
0.0004185444432497648 
0.0004353219834368049 
0.0003391454636703819 
-0.0001268279175645404 
0.0009692043595899203 
0.0006181943223530050 
0.002851356120334981 
0.0003519194958263929 
0.003179293875287702 
0.007710832288621428 
0.006700688006041386 
0.001078958566627309 
0.0001505408006280742 
0.007506338690824078 
-0.0007350127726172434 
0.0003019130717138368 
0.0008975052124265727 
0.0007957562565980965 
0.002379954644594708 
0.001880314301361665 
0.001441364064357131 
0.0008936293812044781 
0.001020278748319026 
0.001221772614431123 
0.001664040244825746 
7.497845667071200e-05 
0.001283237960315824 
-6.539399872555908e-05 
-7.928317315646055e-08 
6.282018398948043e-05 
0.0002547299315882820 
0 
0 
0.0003623999671447575 
8.154479537786569e-05 
0 
-3.294455967758318e-05 
2.440229133648633e-05 
0 
0 
0.0003005108134222969 
0.0006085278518595676 
-0.0001552241632535336 
2.906044471623668e-05 
0.0005145750925670595 
0.0002959592297196813 
0.009723563551881018 
-0.0001323456733855471 
0.001708936354178215 
-9.968091140375830e-05 
0.0001540806942141407 
-0.0001704044284321604 
-0.0001520042671348500 
0.0007532589149618371 
-0.002498578815468841 
0.001432815839636669 
-7.755443343482500e-06 
-0.0002708536241791801 
0.0001193024132375167 
0.001594217828717355 
0.001800486260222297 
0.002393357684459601 
0.001184497852139340 
0.0004776144567694872 
5.729124866894528e-06 
-0.0001778513333515779 
0.003946197484680505 
0.001122904448130234 
0.0005033940041268094 
-6.445670877177306e-07 
0.002048107199312634 
0.001361983183765461 
0.002159271837607490 
0.003265801890621988 
0.0006139462950247815 
-0.0008564268677637871 
0.001165709619596641 
0.002166096631140471 
0.0003871019122460339 
0.0008673321075579808 
0.0004114580977342856 
0.002991583568803984 
-0.0001070932288990365 
0.0003483413326735718 
0.0003860837301439092 
0.0001484192735525052 
-0.002621050397053810 
-0.0002768003004067161 
0.001729760811241884 
0.0008670137384803519 
0.0001909618172335298 
0.001029433285761191 
0.0005905711466406664 
0.0002821908798900819 
0.0002520310132083269 
0.001988254668782266 
0.004089002532240544 
-0.0002135193479764737 
-0.001810404552304115 
0.001051807479896589 
0.001799884248672965 
0.001026836890021549 
7.286531819510490e-05 
0.002141532203334437 
0.001752993554695768 
0.008270653070445880 
0.0008789647394248257 
0.003092828533641870 
0.001988073585910895 
0.0003503135429553820 
0.003523653454429303 
0.0005808228317558499 
0.001436587108633192 
0.0001720016148938490 
0.001464551773459307 
0.001475380490801574 
0.005917175716712887 
0.003692688802386439 
0.003434632529356594 
0.001566606573293074 
0.001263357235142225 
2.789570559033145e-05 
-0.0006210033978096509 
0.001850441111830868 
0.001568966877330650 
0.0008149419285097856 
0.0002700136906346282 
0.003566201907591518 
0.01022189348357130 
0.007595557743989820 
0.01250866510256880 
0.01100985347429386 
0.006833329890546149 
0.01967268818430160 
0.01856465365471410 
0.02085509947752317 
0.009002230216622362 
0.01423816357201841 
0.01675670106325712 
0.01340214374594745 
0.003398215241277479 
0.01663095342211607 
-0.001632219066067506 
0.001300890206191846 
0.006180296700600332 
0.006037288726177399 
0.01304519706685964 
0.002995089882049207 
0.0006021292389532517 
0.004813803541908780 
0.004564497643830671 
0.0003168475737156120 
0.0005644527163244052 
0.008228677474453107 
-0.0009398876744789181 
0.003282521682565284 
0.001515041989738108 
2.638519502085699e-05 
0.001534226462759197 
0.003532771120975163 
6.276890798062407e-05 
0.002699718753406128 
0.004198554697263450 
0.0005749033674904317 
0.0002545415509983524 
0.0008925902075103000 
0.0004316034456186022 
0 
-0.0001041657196242957 
0 
0 
0.002107754394279980 
0.001485141793361092 
0 
0.0004063060085279221 
0.0004169255278338802 
2.869715070657603e-05 
0.0003530047982289827 
0.002108666516004788 
-0.003327699437601744 
0.007319372602512643 
-0.0001703764096020388 
3.801977644599575e-05 
-4.385043728216033e-05 
0.0006511762530122807 
0 
-0.0002640625952288762 
-0.0002187648019157352 
6.815808583785358e-05 
0 
0.0005557855484670110 
0.0001522485237532411 
3.528243186794416e-06 
0.001100737498179843 
0.002056864604436163 
0.0003427263894413625 
0.0003824084505341454 
0.001307927950508522 
0.02878653972645122 
0 
0 
0 
0 
0 
0 
0 
0 
0 
0 
0 
0 
0 
0 
0 
0 
0 
0 
0 
0 
0 
0 
0 
0 
0.01427306347400463 
0.007678154251596754 
0 
0 
0 
0.005397344882367098 
0.008482750920722119 
0.003919134872934243 
0.005652232973702563 
0 
0.002893590738349611 
0.007652141618165169 
0.0001704835570903361 
0.003380039072179614 
2.526233157399235e-05 
0.002431358183716357 
0.001566654920454957 
0.002782401858113664 
0.001732088550620182 
-0.001292546784432296 
0.004508096972722292 
0.01022512017330956 
0.005865616281169770 
0.004794246640090899 
0.01054310003429042 
0.002430274732188599 
0.005651704964487274 
0.008361300688940192 
0.003252949720957372 
-0.003504441814147386 
0.004638011864686834 
0.004150966857923901 
0.006760503438511372 
0.001798154854805741 
0.001723403996084087 
0.001271871595999607 
0.002197939206433615 
0.008471082744323195 
0.001895583941080719 
0.002841499305903546 
0.003792822693435275 
0.003835326187408915 
0.002048143299075677 
0.003027335249754217 
0.004951675967546952 
0.001779903160586607 
-0.0008908737416299306 
0.004337994524528642 
0.001136783658133390 
1.882339917005026e-05 
-0.0004871608348886243 
0.002269570086229011 
0.002186985497159760 
0.004671185994886066 
0.002821924804561487 
0.006938978728332444 
0.001773543885971199 
0.002062677154457222 
0.007641671970255800 
0.0007041507271460125 
0.003100267924969096 
0.0005723181780106861 
0.0002130078053365930 
-0.004529178337514597 
0.001090185688922046 
8.813203343805636e-06 
0.0005306073633059039 
0.0003200552132155630 
0.002454626088946456 
0.001252883366691336 
0.001612143810428217 
0.002145754017448291 
0.0001264044753940303 
-0.001615941693733871 
0.001595546056120750 
0.001766527964291082 
0.0001242625605926857 
0.001916850904560395 
0.005109945878777694 
0.0006586991749049876 
0.0004672768355485388 
0.002836191641683702 
-0.001208881326702231 
0.002772116899098438 
0.002793514665781816 
0.002687247972336927 
0.001882993368282374 
0.0004568801582265356 
0.0004309460011926805 
0.001404889919587296 
0.0003908746700536207 
0.003321432703079995 
0.001151115370471471 
0.0003213147664294542 
0.0004717749271483398 
0.0007086134069931893 
0.004228509228279740 
0.002839788065723887 
-0.007499897183020738 
0.008024399881132993 
0.001717036224895671 
0.01700735466292661 
-5.795010482735895e-05 
-0.0001953788362927808 
0.002826351508969513 
-0.0002790839246350676 
-0.0004955182772171978 
0.002383302633191582 
0.0009163736434677392 
0.009408561211858919 
0.0005859347864067567 
0.003709909101051119 
0.001133203591322752 
0.002401398024020362 
0.007154966891494858 
0.009328342039884027 
0.002592940461516685 
0.004251241418376011 
0.005038295428476971 
0.001282264544675361 
0.004026597927425253 
0.009668978861032056 
0.01471733676313091 
0.01059712540147002 
0.02492922123600969 
0.01174109613731277 
0.01105214766681851 
0.008697199228771126 
0.008992069792837206 
0.01474859700436965 
0.01761446607833322 
0.008643374507147413 
0.006042511297169584 
0.005934834967799620 
0.005016880541032635 
0.002870988935909811 
0.004898785902809663 
-0.002744692755069895 
0.006662195963278890 
0.004479200070208246 
0.005363567041279761 
0.007225300991357781 
0.005995870658338825 
0.001767785015345943 
0.001993953494958745 
0.01300297609528561 
-0.003237303510098255 
0.01366753415109667 
0.003936812768783471 
0.009624207602121432 
0.001067234492499593 
0.001439994679303470 
0.006035805791476848 
0.01117402868620823 
0.003918135845464957 
0.001232181559759441 
0.007202303484972830 
0.003472800260661410 
-0.0001186719950758929 
0.0004225806354184149 
0.0003439223601402715 
0.002198591893444545 
0.0003426420348128682 
0.004453514484469388 
0.005771876231330689 
0.001534188958315214 
0.007672308352074351 
0.004492164445154743 
0.008520097546226856 
0.003017924449127002 
0.001531810716362500 
0.006346167174336787 
0.001276900500591912 
0.007543374667402634 
0.002050502111862610 
-0.009084005231868785 
0.003082259085285176 
0.002712918273848013 
0.002045768269334284 
0.003370337363880507 
0.0005780289121677690 
0.001206859046241864 
0.0009412650487873914 
0.0008016640049180509 
0.003870923602907616 
0.002096123463693683 
0.001214593136375938 
-0.0001696911233231796 
0.0007930559196535418 
0.008070911685836062 
0.0009917463206480007 
-0.0002107675526786901 
2.095887023554726e-05 
0.001107342973166337 
-0.0001376911218699914 
2.206308383352338e-05 
-0.0001157308408439686 
0.0008942242315769619 
0.0001955950932618853 
5.735763194522923e-05 
6.050882355674794e-05 
2.211083006144021e-05 
0.0004620311133920776 
0.0004637260736406140 
-0.0001050419133687142 
0.0004702653091915067 
0.001815285878881716 
4.457706896924604e-08 
0 
2.887059955101502e-05 
0.0003193440771772960 
-0.0001072704941702160 
0.0007308223147939202 
-0.0001666453171543708 
0.0003124496705425431 
-3.374844020726942e-07 
6.118231932065987e-07 
-2.199703018912488e-07 
-9.799922319817326e-08 
0.0002047595678668018 
0 
6.058839994386310e-05 
-0.0003615925355184265 
2.656612272820447e-06 
6.295990339483219e-05 
0.003254241229036002 
6.627464692820169e-05 
0.0001825743868533687 
-1.530583877685338e-05 
0.0006816058134202967 
-0.0002126172280944639 
0.0005013931413312550 
0.001214626251812483 
0.0008618415275254789 
0.0008358374712016613 
0.003964928104820535 
0.0006372360881690216 
0.003469862245587585 
0.001120521210735271 
-6.704447422737333e-07 
-0.004325385806971937 
-0.0008595851668096243 
0.007516039778914728 
6.639716506345909e-06 
0.0001158854799373799 
0.006483804094265936 
4.218940706435329e-05 
0.006829020643689490 
0.0001468767270168735 
0.002063569390720537 
0.001763727501160921 
0.001656853597056455 
0.003639514445372811 
-0.0004981384693291321 
0.007806631288521632 
0.006626409793489338 
0.004319699942028498 
0.001504983348652612 
0.001106158900019077 
0.02282092557782874 
0.007366184435465773 
0.01096623614434545 
0.02062751786941451 
0.01372077770890532 
0.04493751600100630 
0.01144573614678943 
0.01458190002063768 
0.006833886813772470 
0.01247697919402616 
0.004392847637170955 
0.004757942330918497 
0.01497343394301545 
0.005147151087540085 
0.02409371696931551 
0.02877787981303951 
0.03004903391123476 
0.02421283111295566 
0.02783905221540712 
0.05005839050167340 
0.01493428086039869 
0.07042954188561071 
0.04028818486380829 
0.03895543004263583 
0.01933520272758885 
0.01215833466692710 
0.01377491393805703 
0.01788613454057948 
0.01067734300884437 
0.02032369140209224 
-0.001263312327741623 
0.02963524762563362 
0.02695977354938522 
0.02927410416212173 
0.005924913653153685 
0.01871628898597456 
0.02526949332657382 
0.01816434217010721 
-0.003469218399205945 
0.008927189511546016 
0.001255314706137675 
0.01075727623736180 
0.005803255238010979 
0.003873513667432325 
0.005842694866175556 
0.01817277761354826 
0.001296992719457987 
0.001275617851760287 
0.0007454984118988951 
-0.005399355193432794 
0.0001042376237899484 
7.462297352191509e-05 
0.0006381712917083031 
4.288869436014318e-05 
-0.001211976030688353 
0.002520302343182482 
0.004525242460992744 
0.001579424122175704 
0.001027233857386401 
0.005381337093349161 
0.01356980030822462 
0.003609028573411009 
0.003627554065128873 
-0.001130404207236242 
0.009952238565453755 
0.005208324410096731 
-0.02386882793207893 
0.002227358708165723 
-0.003075263901865689 
0.0008668201588180699 
0.009538233896264220 
0.0002549006278711997 
0.0009626183677783182 
0.005888518378326909 
-0.001924111127131656 
0.001194691805291442 
0.002297100420451724 
0 
0.004900253978068691 
0.0001460702329254094 
0.003448866464344876 
0.001127893260360856 
8.865848611596996e-05 
0.0005347756538782889 
0.002360287887412629 
0.002224748456239255 
0.002074437452154094 
0.004696242647090543 
0.001505038135765456 
0.0001741637682155121 
0.001321994768004038 
0.007136137412582337 
0.0006275611134064210 
0.0008354158404584348 
0.001083918761575303 
0.0006949667207379852 
0.005255984672021158 
0.004611244069375142 
0.005973393504778469 
0.005603303191168201 
0.003598226282537355 
0.003443022858984270 
-0.0009702999524427787 
-0.0002619351804619601 
0.0001797748288498179 
-0.0001741607561457663 
-4.416419146128640e-07 
0.001276466378786891 
0.0002370725722077887 
0.0001951891787029383 
-7.366905895480012e-08 
1.436269311482022e-06 
0 
0.0009630857885998250 
8.325044235874947e-05 
0.002664239325786926 
0 
0 
0 
0 
0 
0 
0 
0 
0 
0 
0 
0 
0 
0 
0 
0 
0 
0 
0 
0 
0 
0 
0 
0 
0.009163121414555693 
0.004458373404677456 
0 
0 
0 
0 
0 
0 
0 
0.008404858718857256 
0.01003205185710175 
0.002765813740201046 
0.001951727386057576 
0 
0.01042464878395689 
0.01013969406087439 
0.001593165490420654 
0.002035317022367871 
0.001345401823885732 
0.003590698586158739 
0.001640816074534221 
0.002018335949253505 
0.008511515181610140 
0.002767095125456477 
0.001288465813775220 
0.003491349805215129 
0.003337911042870315 
-0.002356607434442931 
0.001754587677142615 
0.003834632565706259 
0.001222916300091911 
0.008719461748835134 
0.003064262310950244 
0.0008506275552414221 
0.002946033582493854 
0.006713502679587605 
0.001613754964981107 
0.0005308100651967567 
0.003170198056828469 
0.0001567810727754685 
0.0008903931454026465 
0.002021299958842501 
0.01193021376131864 
0.0001724926300876204 
0.002441482759413850 
-0.002546123127861044 
0.002654755950349277 
0.003312024734419862 
0.002503801507991623 
0.003242801150203716 
0.002621427382361576 
0.003960862356468567 
0.001177172454261412 
0.001003733505239755 
-0.0002401514263646214 
-4.168205002161708e-06 
0.004138057953735318 
0.0008857906803143341 
0.0004214290229091689 
-0.007297112888569152 
4.152959625393284e-05 
0.002096109954753330 
-0.003546139120788687 
-0.001280079281392646 
0.01478723883175169 
0.008472408249076963 
0.002110629218834418 
0.001821252355982551 
0.001096067143648740 
0.002249227541279138 
0.002199239497497102 
0.0001281151453217035 
-0.002368753705899724 
0.0007695677071015618 
0.004100482106020208 
0.001531145523756689 
0.003477627945817869 
0.0003778121124489670 
0.001149039809412986 
0.0003866901144103630 
0.007388409839732034 
0.002566346984822732 
0.003852026399600561 
0.01098445579943967 
0.0004152843201921547 
0.01361455576434039 
0.003895747133558388 
-0.001489593755999611 
-0.0003214175343669183 
-0.0001701154723873327 
-0.0004008220400581960 
0.002202651402359861 
-0.001120535927338159 
0.003922521895880315 
0.006366888148543881 
0.01480784745915693 
0.004983539091494450 
0.008854739281088863 
0.003295145657049923 
0.005995733001507500 
0.005060447027145197 
0.004638530892511180 
0.0006796199045493009 
0.002970738262739814 
0.004744800257123856 
0.0002109254413844735 
0.002822259103402124 
0.001283473721273430 
0.001182995578789108 
0.003152717404074956 
0.0007510429480106372 
0.003878919953871593 
0.003167187579019557 
0.004912839495660923 
0.003869622962674052 
0.0001261359157710114 
0.006872771671331617 
0.0005445741374456953 
0.006640537024161994 
0.001438728844663198 
0.004325915832012482 
0.007603608999718875 
0.009477403636136205 
0.008730041432049253 
0.001750502760178206 
0.0009216530328533888 
0.002967690649189874 
0.006479279032276969 
0.005227447265685137 
0.003419719682209165 
0.008226074871821198 
0.002916483038206779 
0.003847334964021952 
0.001602220065021450 
0.002570936135027292 
0.0005215971615681195 
0.002395778001628063 
0.003430414524959373 
0.001838512395763881 
0.002920150624540098 
0.001809150920568495 
0.007316666810392851 
0.001921069199512156 
0.003592474343129343 
0.002697800821192979 
0.004580751745040242 
0.003928742230558608 
0.005651461290394790 
0.004132560643846506 
0.001300231676333641 
0.002363465884329199 
-0.001236736795907024 
0.0008518862425096567 
0.005157467354913722 
0.002906837034629371 
0.003859961317808383 
-0.004114297724945530 
0.0005262169478268920 
0.0006522830940369189 
-0.0001386348249193650 
-7.308972671121329e-05 
0.0008060018742693789 
-0.004949924568854688 
0.0001832466448563242 
4.213157919507936e-05 
0.0008405185229668865 
0.001234041686206276 
0.0003200474878196203 
-0.003268466885911313 
0.0005998391275522740 
0.001706987237926237 
0.002658013630952581 
0.002758883575024536 
0.002227914345675915 
0.001235989352038806 
0.003627499349283357 
0.003684010990659159 
0.004418490353583987 
0.002970478249709200 
0.0008551232160310667 
0.001447690052365318 
0.001487146781972424 
0.0001529295349477213 
0.0002027044577790847 
0.001786618814751680 
0.002308367929328485 
0.001453572119803584 
6.286528450369157e-06 
0.002716526608050655 
0.0009551281801943707 
0.0003676990475941491 
0.002504944686614231 
-0.0001795140109796833 
0.0001207482545590040 
6.643809249486860e-05 
-0.0001341212148454589 
0.0008375337017801684 
0.0002316162872909642 
0.0003485394930960013 
6.924791258453645e-05 
0.004830820072824343 
0.001940169445375820 
0.004702489154823172 
-0.001222055056052128 
3.472473323129413e-05 
-0.0001280552235681907 
-0.002443844948604448 
-0.0001816670245044612 
-0.002241561047072358 
0.0003745952656075044 
0.0007199439930650293 
-6.254531040860091e-05 
0.001867220099310767 
-2.312406266603341e-07 
-0.0002101768018561635 
0 
0.0004643195419863746 
0.0006065376527664347 
0.0003948902620650474 
0.0004261643050900045 
0.001174874756638731 
-0.0004783084143569480 
-6.240953766393903e-07 
0.0005614256870021718 
-0.0002104655372308853 
-0.0001071937776769715 
-0.0001286418298859960 
0.0006330005791470564 
-1.390569929318702e-07 
-0.0002192476550236509 
0 
0 
-2.930371454186586e-05 
0.0006646696911006100 
-5.954820569568849e-05 
0.0005323314602477748 
0.0001431153661117664 
2.084284801136580e-05 
-2.772282045658758e-07 
-4.066771029415414e-07 
0 
0 
0 
0.0002394385899325139 
0 
0 
-8.216477596216168e-05 
7.027205632840989e-06 
0.001417047161708881 
0 
0.0002402600479107762 
0 
0 
1.688139945180375e-05 
-3.871763494160995e-07 
0 
-2.365444789581557e-07 
7.446807987176857e-05 
-3.070585910265934e-07 
0.0005010972504135203 
0.0004312031717350991 
0.0009497006595013867 
0.0002304130343460382 
-2.157551713307847e-07 
0 
0.0001356340663358758 
0.0003954615634394240 
0 
0.0003009421466757489 
-2.688096267403002e-05 
0.002026317406919141 
0.0002876866359284531 
0.001084211252032168 
0.0004290286857254272 
0.0008963269423628822 
0.002614797537224618 
0.0007429548739136862 
3.245877958298926e-05 
-0.0009981894944906483 
-0.008899476825191923 
-0.0004471813290051867 
0.001607599568300865 
0.0008220713056754169 
5.194864496094786e-05 
0.002816396126935339 
0.003112230826778070 
-0.0002457196949380531 
0.001012486563493378 
0.002147709480141453 
0.0008917173428071348 
0.001562439539136486 
0.0003567030463060610 
0.003060001171974549 
0.0001653044523363835 
0.004380728521611334 
0.0003348228803621732 
0.002785599075315198 
0.0006735258822343576 
3.567919314021433e-05 
0.003118599466315045 
0.0007272497946464965 
0.001587100183898783 
0.001370618793459616 
-0.0002621365067058900 
0.005249031143784912 
0.005857878638240904 
0.002324637777543378 
0.004309358121559481 
0 
-0.0002473547666309083 
0.007864341671477183 
0.0007854767601169264 
0.002284058406664033 
0.004051801981322347 
0.003370532632486848 
0.001435928114345136 
-0.0001789910808601239 
0.001668627271939829 
0.0009567245594947092 
0.001315684783696078 
0.0005554305127871658 
0.001923115781262268 
0.0007278412695754302 
0.0003999586073013330 
0.0009322555987908986 
0.004284568409903897 
0.001082071891339607 
0.001818586385870188 
0.002669054240071858 
0.002008594903269858 
0.001385532724042890 
0.0003057544163058608 
0.002117365869726487 
0.002877702283265379 
0.002673166898405949 
-1.497079278309590e-05 
0.001259236959618952 
-0.0001678987856563269 
0.003285530211486616 
0.0004560702066571735 
-0.001365041704905620 
0.0002190187071014938 
6.241435893667195e-05 
0.002483109379896722 
0.0005430888787231709 
0.005731659552212630 
0.0001910953369549161 
0.002506379892494024 
-4.032895740728316e-05 
0.0002321544355191973 
-0.0003454885088864323 
0.002736225644109584 
0.002271730395869999 
-3.726719428035781e-05 
0.002544923984398048 
0.002576987873724333 
0.002919866691528225 
0.0007167756210307994 
-9.535211831246360e-06 
0.006345248563812741 
0.001523831285327347 
0.0005031923617834944 
0.002245646199171767 
0.001564322400305151 
0.0009269778050735560 
0.005221179125180872 
-0.0002453381274716221 
0.002751074226644192 
0.004746740251129142 
-0.001366807426102796 
0.0002718594042307893 
0.002015843202238547 
4.953778695033106e-05 
3.903609996261774e-09 
0.0007226051094017388 
0.002718647238488306 
-0.001174822585904289 
0.001648195719053755 
0.001593415018508204 
-0.002144580396453874 
-0.0002044836016769008 
0.003411680989601921 
0.003943434724656005 
0.01022266717399052 
0.001574714781197975 
0.006877356757857463 
0.01013664506235299 
0.006767912178769581 
0.006269556606605202 
0.008375081213800655 
0.002636945558843785 
0.001639138576543395 
9.502882216818284e-05 
0 
0.02143240577316416 
0.001743745054479133 
-3.250000021731314e-05 
0 
0 
0 
0 
0 
0 
0 
0 
0 
0 
0 
0 
0 
0 
-3.106634825153044e-07 
-0.0001137003975109500 
0 
0 
0 
0 
-0.0001137003975109500 
0 
0 
0 
0 
0 
0 
0 
0 
0 
0 
0 
0 
0 
0 
0 
0 
0 
0 
0.001982487459976308 
0 
0.0001014122601596042 
0 
0 
0.001306275444446983 
-8.427134216556707e-05 
-0.0004138565119855978 
0.002611974135590171 
-0.0009981192567312853 
-0.0005331583185769309 
0 
0.002421498298032853 
0 
0.001441309173875166 
0.0009597382649956756 
-0.0002080376702620667 
0.0001826956490499885 
0.001173785665622484 
0.0002501012267517674 
9.842067571951826e-05 
-0.0002486125168160932 
0.002356880043327766 
0.001106448696047085 
0.0009863009204402760 
0.001563148518911947 
0.01192226847960667 
0.002180077731717239 
0.001160498221591407 
-3.422371618154265e-05 
0.007739123792891442 
8.696221508478055e-05 
0.008647583645712720 
0.002538007555018355 
0.001016684393614641 
0.001017814688730434 
0.008618788417946045 
0.001845035125465002 
0.002303040166169263 
0.003125619861054029 
0.004577671765177776 
0.002971965555365499 
0.005792287416534210 
0.001529748974506377 
0.01068300210687825 
0.004133298063373673 
0.001673640806105462 
0.006865109285115523 
0.001492362353795958 
0.005658173416644078 
0.0009958234347538110 
5.783340384566625e-05 
-0.0007264584013040486 
0.008494820743170702 
0.006356866956072669 
0.002410942968076562 
0.003492265478199415 
0.005400278506118820 
0.005896625332046910 
0.003544308567620049 
0.002117310031776472 
0.001862922425668149 
-0.001434663993609701 
0.002598751946596440 
0.002611480087208348 
0.006609653428853593 
0.008254059767445488 
0.004132253812851966 
0.007270431322408718 
0.003922860461779734 
0.003107087015754362 
0.003790660554837996 
0.002803046896421234 
0.006829184176264134 
0.001809176016031512 
0.003202102030690926 
0.004349522135279469 
0.003147183748391960 
0.001980555792502616 
0.009121460826578066 
0.002727328856683770 
0.005820118144738911 
0.005869609991405642 
0.001723206578100469 
0.007978350927733862 
0.006499536075581320 
0.002498496967245650 
0.001727003536005689 
-0.0003994894611844761 
0.002757910211863209 
0.004654214309909060 
0.0009246722524102698 
0.002172763304653248 
-0.001412671530360376 
0.002276702830302935 
0.001349286128830696 
0.0006440166921853330 
0.0004069305339852894 
0.0009939932347076293 
0.01219499487149166 
0.005660869519958944 
0.003053250978196129 
0.001156550800052818 
0.0007452046751578402 
0.0009687340103037992 
0.0009341112714033903 
4.417426746464008e-05 
0.0001711177072188449 
-0.0002053140469342009 
0.0008949077278571655 
-0.0003504567268946689 
-0.0003317996981708971 
6.136012546473380e-05 
0.002696882259438289 
0.004392443759449988 
0.006075499501730756 
0.0003128618566071665 
0.0003451604680540181 
0.002218018313435166 
0.009518778767707053 
0.0001615871435077827 
0.004337919652554075 
0.004087233316640382 
0.003237940086708301 
0.001279710125764108 
0.001104012632800004 
0.001413405984350425 
0.007178344485128670 
0.01015672710008508 
0.001973340901181060 
0.001617816086333528 
0.001523160176339648 
0.001128652915834575 
0.0009830402199434768 
-0.0001530285501048907 
0.001289000910728459 
-0.0001867602781503360 
0.001520777537602187 
0.004017459528490638 
0.002582781961865046 
0.0008421266690196913 
0.004542492899358888 
0.0005667462873278005 
0.001874664081776601 
5.953404464329659e-05 
0.001191733714454520 
0.001808332545056486 
0.001357116904953388 
0.001344792277516613 
0.0004537972054308681 
0.0008646179666638744 
0.0008317146653109051 
0.001734556698914806 
0.0008024196728594247 
